0.0070711386455885 -0.0040070802941984 -0.0060029908139286 -0.0166881313516648 0.0124716940824610 -0.0075960570085757 0.0141904965361492 -0.0073397015289773 0.0000421155430769 -0.0133188879055147 
-0.0096713156529435 0.0182396923734245 0.0085531174657430 0.0036652729880673 0.0156236457411420 0.0015192114017151 -0.0024384289071322 -0.0088876003295999 -0.0031879634998627 0.0064937284463027 
-0.0135825678273873 0.0098922696615497 0.0006634723960082 -0.0143235572374645 -0.0041047395245216 0.0177269814142277 0.0099899288918729 -0.0057161168248543 0.0150852992339854 0.0008368175298318 
-0.0015887936033204 -0.0074874111148412 0.0110727256080813 0.0173937192907498 -0.0013312173833430 -0.0045674001281777 0.0194360179448836 0.0163255714590899 -0.0163621936704611 0.0137473677785577 
0.0190478225043489 0.0187426374095889 0.0183935056611835 -0.0138169499801630 -0.0062715536973174 -0.0151182592242195 -0.0095699942014832 -0.0043549913022248 0.0177648243659780 -0.0119040498062075 
-0.0199987792596210 -0.0078621784112064 0.0014728232673116 0.0109799493392743 0.0056855983153783 0.0046052430799280 0.0005877864925077 -0.0111508529923399 0.0121359904782250 0.0079671620838038 
-0.0140745262001404 0.0135972167119358 0.0196569719534898 0.0079854731894894 -0.0177086703085421 -0.0149314859462264 -0.0110800500503555 -0.0070174260689108 -0.0025568407238990 0.0036323129978332 
-0.0173729667043062 0.0092941068758202 -0.0035737174596393 0.0022833948789941 -0.0030048524430067 0.0138877529221473 -0.0134873500778222 0.0195678579058199 -0.0149168370616779 0.0020599993896298 
0.0081929990539262 0.0098568681905576 0.0093173009430219 0.0008404797509690 -0.0132248908963286 0.0168053224280526 0.0151426740318003 0.0190588091677602 -0.0020758690145573 -0.0127317117831965 
0.0194933927426984 -0.0165489669484542 0.0177831354716636 -0.0075301370281075 0.0064473403118992 0.0171764275032807 0.0066768395031587 0.0141050447096164 0.0010394604327525 -0.0184557634205145 
0.0193871883297220 0.0072994170964690 -0.0056587420270394 -0.0175743888668477 -0.0140940580462050 0.0061482589190344 -0.0082845545823542 -0.0188879055146947 0.0196789452803125 0.0085409100619526 
0.0059163182470168 0.0156431775872066 0.0189806817835017 -0.0008722190008240 0.0050532547990356 0.0176036866359447 -0.0193224890896329 -0.0058162175359355 -0.0092416150395215 -0.0061177404095584 
-0.0157739688142469 0.0117150392337596 0.0049226355784784 -0.0032707943002569 0.0116867580187384 -0.0170653068610659 -0.0009345791632782 0.0054444700859851 -0.0115138619702050 -0.0062727328601345 
0.0160226679511563 -0.0117562122984702 0.0159495834223457 0.0122394095095067 -0.0124753563035981 -0.0147256829797488 -0.0070681671366621 -0.0104478816017354 0.0132042972436796 -0.0147978293720430 
-0.0040462092271917 0.0121445168389930 -0.0044611957152013 -0.0062723131630485 0.0011249122592853 0.0123185993775008 -0.0192229309083102 -0.0179411797624022 0.0197388759283917 -0.0029382470669404 
-0.0001991359927002 -0.0001448111117088 -0.0147776726584674 0.0142976865883694 0.0062190618610187 -0.0109848023598405 -0.0030524839231958 -0.0118520903109768 0.0176595402736819 -0.0045328856543199 
0.0138511307107761 0.0185924863429670 0.0195788445692312 -0.0001251258888516 0.0025568407238990 -0.0162303537095248 -0.0075923947874386 0.0094894253364666 -0.0102072206793420 0.0126621295815912 
-0.0113669240394299 0.0011358989226966 -0.0026252021851253 0.0118515579699088 -0.0144541764580218 -0.0070101016266366 -0.0146385082552568 -0.0167430646687216 -0.0128220465712455 -0.0053242591631825 
-0.0012762840662862 -0.0023603015228736 -0.0018964201788385 0.0072420422986541 0.0017377239295633 0.0120297860652486 0.0012762840662862 -0.0112240974150822 0.0137400433362835 -0.0030890835291604 
-0.0023725089266640 -0.0036725974303415 0.0086751915036470 -0.0028705710013123 -0.0172374645222327 -0.0095699942014832 0.0010467848750267 -0.0136252937406537 0.0047749259926145 0.0086666463209937 
-0.0077034821619312 0.0169359416486099 0.0171752067629017 0.0081893368327891 -0.0026459547715690 -0.0089742728965117 0.0031305887020478 0.0175878170110172 -0.0085055085909604 0.0091756950590533 
0.0158409375286111 -0.0125473799859615 0.0029670094912564 -0.0036298715170751 -0.0166649372844630 -0.0001251258888516 0.0010614337595752 -0.0042268135624256 -0.0152293465987121 0.0145225379192480 
-0.0081637012848292 -0.0043464461195715 -0.0061958677938169 0.0055244605853450 -0.0130869472334971 -0.0120773949400311 -0.0151097140415662 -0.0125852229377117 -0.0006891079439680 0.0059736930448317 
-0.0004950102237007 -0.0142637409588916 -0.0156834620197150 0.0116513565477462 -0.0042841883602405 0.0194433423871578 -0.0018683431501205 -0.0004571672719504 -0.0183935056611835 -0.0196655171361431 
0.0179406109805597 0.0166063417462691 -0.0067256691183203 0.0197814874721519 -0.0128049562059389 0.0147581408124027 -0.0091634876552629 0.0017474898525956 -0.0147801141392254 -0.0147679067354350 
-0.0012091433454390 0.0086471144749290 0.0138608966338084 -0.0135630359813227 0.0063789788506729 0.0065608691671499 -0.0130808435316019 0.0003765984069338 -0.0153404339732047 -0.0069380779442732 
0.0074300363170263 0.0142527542954802 -0.0150852992339854 0.0023322244941557 -0.0065083773308512 0.0149180578020569 0.0105087435529649 0.0103610339671010 0.0122385326700644 0.0183800775170141 
-0.0023761711478011 -0.0059395123142186 0.0065315713980529 -0.0022602008117924 0.0163609729300821 0.0094479201635792 -0.0137144077883236 0.0186217841120640 -0.0003973509933775 -0.0169286172063356 
0.0089718314157537 -0.0041731009857479 -0.0051667836542863 0.0089230018005921 0.0038557084871975 -0.0041218298898282 0.0040986358226264 -0.0176708273567919 -0.0083285012359996 0.0133970152897732 
-0.0054316843165380 -0.0025702688680685 -0.0199768059327982 -0.0121726126895962 0.0102975554673910 0.0073335978270821 -0.0033820612201300 -0.0136033204138310 -0.0122629474776452 0.0009601123081149 
-0.0184093752861110 0.0050044251838740 0.0172606585894345 0.0186144596697897 -0.0166283150730918 -0.0069148838770714 0.0006341746269112 0.0019672231208228 -0.0161033967101047 0.0067024750511185 
0.0057319864497818 0.0191821039460433 -0.0156846827600940 -0.0195043794061098 0.0131272316660054 -0.0160362559892575 0.0085213782158879 -0.0061470381786554 -0.0097933896908475 0.0160338145084994 
-0.0192712179937132 -0.0158067567979980 0.0062483596301157 -0.0171251564073611 0.0042060609759819 -0.0121897030549028 0.0105172887356182 0.0129172643208106 0.0009344767601550 0.0108932767723624 
0.0128647724845119 -0.0172423474837489 -0.0194897305215613 0.0056282235175634 -0.0069100009155553 -0.0115854365672781 -0.0091476180303354 0.0136765648365734 0.0086825159459212 -0.0084237189855647 
-0.0121908703830538 -0.0024377558691258 -0.0085479735572473 0.0037542965624545 0.0147105319376202 0.0090279423118177 0.0122311320386205 -0.0189977721488083 -0.0110194360996236 0.0138812696261097 
-0.0035098637678738 -0.0062128269761986 -0.0125077219700220 0.0065619922080303 0.0176195562608722 -0.0064508884759386 0.0170497482767079 0.0169313263798745 0.0133455550634835 -0.0054152307838861 
-0.0174700984940914 0.0071893527181275 0.0104477809766993 -0.0064599916140595 0.0103744621112705 0.0110078294030390 -0.0119911196802763 -0.0187711518002872 -0.0151570441959015 0.0178660442727570 
-0.0100365799944652 -0.0171391799239313 0.0190774838219306 -0.0076472043407325 -0.0141099276711325 0.0106483061971729 -0.0158870635517290 -0.0128738981242885 -0.0126223966823088 0.0020714211975775 
-0.0031689184789901 0.0150712296747145 0.0110763067982078 -0.0139124733014652 0.0057063509018220 -0.0005054598477369 -0.0192990172344822 0.0035496590394024 0.0121362246830232 0.0086977489333802 
-0.0094979978223224 0.0131724838979659 -0.0022202500373872 -0.0136759062123369 -0.0064619891964476 0.0039915878998967 0.0034461703923117 -0.0147174093903187 0.0200264837215299 -0.0024737782693314 
-0.0074911277766868 -0.0035094654852747 -0.0059674632093205 -0.0024326871503701 -0.0156614886928922 -0.0157687521860327 -0.0135698210720972 0.0200166292461946 -0.0004833397893442 0.0033636968431115 
-0.0063626373819207 0.0055846772029866 0.0190337039597870 -0.0014542407683919 -0.0040156254768517 -0.0043948865229147 0.0019653367804780 0.0002292959235375 -0.0067186443990489 -0.0060775914755013 
-0.0086310236864637 0.0054758640667821 0.0066138466761760 -0.0043354406859399 0.0197204504531999 0.0112265506417785 -0.0037099232137393 0.0096598811325665 -0.0184103465501488 0.0183483768122341 
0.0005223063232904 -0.0017782370103832 -0.0019138351570143 -0.0004641896801991 -0.0077559739982299 0.0048207965431931 -0.0107347555785711 0.0063433664053536 -0.0073110499468321 -0.0194927498958788 
0.0097177233239258 -0.0107904838655856 0.0044951948206569 -0.0016674818797218 0.0157457197790460 -0.0039497586050455 0.0079554939755424 -0.0196672588681568 0.0183905268559760 0.0032108298319946 
0.0128941887870751 0.0140476006069409 0.0008618254413527 0.0146092670416076 -0.0041425824762719 0.0131197591489583 0.0124978762688513 -0.0044245030087207 -0.0018961573099417 -0.0083725967347925 
0.0049592082947003 -0.0012728050772390 -0.0059912442909185 0.0051906248377047 -0.0195458845789972 0.0099485184783536 0.0101056656464752 0.0187663513738807 0.0001554139481350 -0.0076532731530519 
-0.0045991760726442 0.0176749296870889 -0.0053823240857186 0.0067851679212328 0.0187047944578387 -0.0138962334921883 0.0087554093770473 -0.0174622180024518 -0.0129931767818422 -0.0149904236265570 
0.0018943649656119 -0.0010412093495564 -0.0107914844566118 0.0054955696101312 -0.0183349101229896 0.0005135643024094 0.0142071290537380 0.0045698639413469 -0.0075189348082325 0.0131548381255963 
-0.0135284282125725 0.0164881640269577 0.0064304285482900 0.0133732426930225 -0.0080098879970702 0.0103175705895473 0.0151055162320728 -0.0071656286602393 -0.0112111905410208 -0.0014460198608269 
-0.0065995062226757 0.0092425587383812 -0.0144366501801951 -0.0105400995976775 -0.0140195928830836 0.0139331809864008 0.0108508694370069 -0.0043486129682852 0.0006250381423888 -0.0089734591673369 
-0.0139677366898674 0.0055778246635468 -0.0156769136755109 -0.0008088039563786 0.0115903195287942 0.0134779783055828 0.0001316151739470 -0.0062801469668569 -0.0191072751751300 0.0103941438881453 
-0.0127402569658498 0.0056428724021119 0.0046320993682669 0.0019476912747581 0.0170555742057558 0.0008612323374126 -0.0088204596087527 0.0076473281044954 0.0180639057588427 0.0010956144901883 
-0.0169920957060457 -0.0198083437604907 -0.0060957670827357 0.0004693746757408 -0.0128196050904874 0.0192883083590197 0.0118515579699088 -0.0093038727988525 0.0150022888882107 -0.0117917416913358 
-0.0130796227912229 0.0128525650807215 -0.0057661671803949 -0.0099618518631550 0.0103317361980041 -0.0163353373821223 0.0090548417615284 0.0126328318124943 -0.0050935392315439 -0.0076790673543504 
-0.0013275551622059 0.0167357402264473 -0.0173143711661122 0.0118198187200537 0.0012591937009796 0.0090401928769799 0.0175328836939604 -0.0038630329294717 0.0093075350199896 0.0191552476577044 
-0.0099887081514939 0.0041572313608203 0.0037043366801965 0.0161192663350322 -0.0053218176824244 0.0046943571275979 0.0182421338541826 -0.0152342295602283 -0.0101620532853175 -0.0177660451063570 
-0.0121958067567980 0.0066768395031587 -0.0135666982024598 -0.0169042023987548 -0.0098690755943480 -0.0165123447370830 0.0034528641621143 -0.0068037965025788 -0.0141807306131169 0.0101058992278817 
-0.0067110196756811 -0.0067232295392852 -0.0125840018138145 0.0079879161615616 0.0014252143925291 0.0032978301339763 -0.0117856396877900 -0.0094112959996284 -0.0141050439283907 -0.0087447732579399 
-0.0016193205691371 -0.0089547133266264 0.0046870938042646 -0.0046845460130627 0.0093795587023530 -0.0124729917408028 -0.0024860943873265 0.0179113132114628 0.0147007133598803 0.0032648701437422 
-0.0124377902489863 -0.0024251386192824 -0.0086329406438181 0.0107988209538108 -0.0067744987334819 0.0146869979440381 -0.0087655837320727 -0.0029855364197015 0.0187376218268655 0.0009161656544694 
0.0090416917356345 -0.0121233816367137 0.0189467910694187 -0.0153678493980302 0.0060444959868160 0.0009806373079935 0.0148710635156304 -0.0115978056463108 0.0083199574282715 -0.0111471654932783 
0.0191210759939931 -0.0069757137970800 -0.0092918367875355 0.0074168530983536 0.0040654338080015 -0.0133269619198186 0.0020650362677239 0.0027111424648079 -0.0090811424571508 0.0051415210418654 
0.0066073245944848 0.0157974371266380 -0.0068209131926115 0.0058466969843327 -0.0060594917737335 -0.0038235068771704 0.0140167921037141 0.0086247551052179 0.0132131651667900 -0.0194204949296837 
-0.0112959545104195 -0.0022230369063679 -0.0037972808264103 0.0034700176373259 -0.0076155888546403 0.0180960442177175 -0.0122208284094751 -0.0104382963827586 -0.0068929411746045 0.0028962608583415 
-0.0020582666815044 -0.0190801023478753 0.0064512411186426 0.0150613876625014 0.0019953001495407 0.0028815436894681 0.0130257638113889 0.0088848773205987 0.0027164885905843 0.0152222079680210 
-0.0006876922281007 -0.0000023530532984 -0.0003296641326465 0.0156536822160205 -0.0032001709036531 0.0014575777456579 0.0154147368744760 -0.0144154475811883 0.0053588298044145 0.0187312181285142 
-0.0032036197848411 0.0134333244592277 -0.0119245300740264 -0.0074776182463742 0.0034199041718802 -0.0125539081452068 0.0156962982205559 0.0026797032075957 0.0014685404492422 0.0102775757632134 
0.0004167248024953 -0.0012894073317675 0.0071600810418700 0.0105541426590134 0.0136179692983795 0.0000692493790981 0.0047399773563056 0.0165698879947261 0.0013567954653573 0.0016413878954838 
0.0146522491449195 0.0032076559410302 -0.0020189054204775 0.0034671950156358 -0.0191943113498337 -0.0120839478445139 0.0028107831993394 -0.0176813581989656 -0.0138100435807080 -0.0122459056543452 
0.0010563492970406 0.0094062457587635 0.0188544465380197 -0.0008130861974074 -0.0087264625995666 0.0068193837215349 -0.0094210455564184 -0.0002928880376025 -0.0051373099535122 0.0024682518514104 
0.0100724576894581 0.0101141501310937 0.0107453203140533 -0.0034093773207622 0.0038117618335520 -0.0073965278312083 -0.0189192887350607 -0.0075998554906861 0.0072020548672447 0.0148958616408771 
-0.0167605575100737 -0.0114330124418908 0.0041528664153193 -0.0117205959789000 -0.0146079897457808 -0.0174159938465795 0.0171748932900897 0.0207498094411981 -0.0052168044979203 0.0019495178897858 
0.0175774437422330 0.0056765518290318 0.0190894734501674 0.0042484204940231 -0.0027997680593280 -0.0120102312533314 0.0034283665000053 0.0161161703051532 -0.0017949584445155 0.0035671397716478 
0.0167819776210758 0.0046632113805460 0.0065003666283201 -0.0104793306890839 0.0030182805871761 0.0157762092603999 0.0126991393925249 0.0019633801888408 0.0196000110210550 -0.0013510045869175 
0.0013774670245473 0.0145026357658057 -0.0030066982909634 0.0164917626954312 -0.0176720480971709 -0.0131471247909235 -0.0012696909192654 0.0131370595617037 -0.0173381826320126 -0.0190208144207033 
-0.0032297525374815 -0.0136722666031676 -0.0081277338246986 0.0158411182659242 -0.0083834345530564 -0.0059777838958493 -0.0012545745901609 -0.0039742301055693 0.0100297507447272 0.0073219885569732 
-0.0128073948902754 -0.0100368339471262 0.0087548270890214 0.0079267472242540 0.0099642933439131 0.0068781253096612 -0.0172398881160811 0.0011034409997624 -0.0082426132774682 -0.0011514457303494 
-0.0127826440230714 -0.0028710178655627 0.0028341406267667 0.0072839621474863 0.0022467726676229 -0.0024040486504127 -0.0039931557147009 0.0038463160008500 0.0018893118082436 0.0084556771150826 
0.0073101349620264 0.0032999466447162 0.0105008785532507 0.0094739087857761 -0.0085311441389203 0.0102005728508581 0.0157357933021552 0.0024799607389437 0.0069208968521209 0.0022342966316877 
-0.0163741564323719 0.0015492164548656 0.0025947645974076 -0.0114264381576987 -0.0179845576342051 0.0129891380571904 -0.0094785688759299 -0.0087331798420425 0.0149040264965892 0.0100172280797749 
-0.0056388928592980 0.0177501754814295 0.0099478329370074 0.0155583505339140 0.0038703573717460 -0.0113581226639608 -0.0097469353714534 0.0017364730639123 0.0059670534797836 -0.0058323196531725 
0.0069563890499588 0.0043110446485794 -0.0172557756279183 -0.0168883327738273 0.0134958952604755 0.0124033326212348 0.0119785149693289 0.0049604785302286 0.0090682699056978 -0.0069649342326121 
-0.0080562761314737 0.0027094332712790 -0.0047090060121464 0.0187511825922422 0.0172435682241279 0.0177062288277841 0.0008185064241462 0.0010089419232765 -0.0172264778588214 0.0177086703085421 
0.0046601763969848 0.0089925840021973 -0.0176952421643727 0.0026361888485366 0.0032331308938871 -0.0105307168797876 0.0082992034669027 0.0143272194586016 0.0032917264320811 0.0114889980773339 
0.0165807061983093 -0.0165184484389782 0.0038911099581896 -0.0046894741660817 -0.0048725852229377 0.0174120303964354 -0.0065413373210852 -0.0076949369792779 -0.0122482985930967 0.0065987121189001 
0.0051228384656941 0.0095248228241821 -0.0102438420457746 -0.0112680399727736 -0.0071504867702261 0.0171837512167995 0.0146543737497196 0.0092477230431936 0.0091988902765177 0.0039082013089813 
0.0088991374492359 0.0187024835092764 0.0157279707544437 -0.0147668720324499 0.0152732932523576 -0.0113861237343012 -0.0191747609205983 0.0195677397285678 -0.0190407678119080 -0.0072381560275072 
0.0147193335239339 0.0145074575918509 0.0036001489582799 -0.0096069000161248 -0.0106393627735221 -0.0100129766634856 -0.0112915993700372 -0.0088087745921765 0.0065535598246545 0.0161510025021432 
-0.0132646839441893 -0.0014090014701808 -0.0132665500383078 -0.0119099330656280 -0.0059077730643635 0.0045718393105618 0.0132597829096746 -0.0109741270988262 -0.0108441902467105 -0.0134333070285190 
0.0022757219391461 -0.0191407298678799 0.0110726355648696 0.0082080459031136 0.0114938810388501 -0.0109337379107452 0.0021301563436774 0.0164709503515970 -0.0008791833130514 -0.0045817198853774 
-0.0176981958477200 -0.0129183544648327 0.0006443703982837 0.0103338806510167 -0.0014513987109094 -0.0039470999397203 0.0190741157244363 -0.0021341215070529 0.0107351453654917 -0.0090535954607684 
-0.0190705063369792 0.0160658900310497 -0.0038066956053968 0.0025005922098231 0.0106920432685466 0.0042786740289974 0.0166271392803227 -0.0030115703767006 -0.0140708735532859 0.0011444087523136 
-0.0059993580263677 0.0073717122558717 -0.0062098621892299 0.0085864133290053 0.0189912777043222 -0.0195225947154218 -0.0040188404134370 0.0058909314017667 -0.0175060855047377 -0.0025553993945058 
-0.0009233849589151 0.0032914300995902 -0.0086497240478178 0.0117197619824466 0.0143513576576199 0.0028373287728385 -0.0068657721575025 0.0047937867149463 -0.0049015594118797 0.0132547816089555 
-0.0068259610004630 0.0101677805953921 -0.0150854170028843 0.0077877841058191 0.0005828873511848 0.0125326991145219 -0.0066081224969032 0.0048963699802213 0.0144607922414255 0.0062745732607216 
-0.0008080057296754 0.0039644985765453 0.0050175086953259 -0.0088589271497182 0.0194403012681952 -0.0149904728153377 -0.0128824467324801 -0.0123366491263346 0.0114050793755472 0.0071148831172746 
0.0009182184584528 -0.0029846846225935 -0.0024016307547438 0.0078851478816270 -0.0056022815056792 0.0176817346596219 0.0121286373169787 0.0016371627976658 0.0155672612540292 -0.0027554713388234 
-0.0056487887480663 0.0065623332481129 0.0067519005955221 -0.0136674237910261 0.0024600943356318 0.0026221411526726 -0.0179452125077010 -0.0091610505478294 -0.0102056651618817 -0.0080803834794547 
0.0062635193191568 -0.0198717098451613 -0.0163036452423657 0.0116138318525597 -0.0024253244337737 0.0008333147063332 0.0097154093620653 -0.0169617066004164 -0.0083788862870781 0.0024998832263621 
0.0109215453404303 0.0084829432378158 0.0045165717999627 -0.0023408385688323 -0.0089799228607669 -0.0217787665760439 -0.0091751864140099 0.0054561174964066 0.0195320924659868 -0.0104551106037110 
0.0109858240154717 0.0131682454104701 -0.0204134972071311 -0.0113874413858910 -0.0117365149868489 0.0119050278683938 -0.0206365884171446 0.0006404504325353 -0.0083888747463295 -0.0012580967536210 
0.0082399850310105 -0.0008229732580660 -0.0071628256841489 -0.0111030153284585 -0.0118107411865260 0.0086416963326732 0.0025345582486223 0.0211687261438862 0.0085957104897590 0.0168188412804366 
-0.0079676910624249 -0.0181132804698429 0.0050035586526245 -0.0041313137830138 0.0138508559147698 0.0107048427503684 0.0141530621520238 -0.0141913932087349 0.0134626630342613 -0.0049939570588884 
-0.0087114048782227 -0.0118707251305137 -0.0122848992945947 0.0001018022993610 -0.0198335926982611 -0.0097232091647747 -0.0008169722033742 0.0131765099320543 -0.0093743785040538 -0.0118007699588749 
0.0011919304820289 0.0092181095134725 0.0170644657501691 0.0016940935196475 -0.0187825834763780 -0.0083031051746291 0.0114818203885847 0.0087081581674848 -0.0046301410170082 0.0174166328648629 
-0.0195275633601001 -0.0150701113379766 0.0088041094937438 -0.0124284739360980 0.0114197449576082 -0.0149923226045521 -0.0171135535705841 0.0028086621571934 0.0161370415883061 0.0049827588728518 
0.0084554234423011 0.0166342861079684 -0.0089181729488436 -0.0065905771472241 0.0133823664052248 0.0013309697223077 0.0129515650582579 -0.0064495545046803 0.0021073525301489 0.0127979872719625 
0.0031337986595162 -0.0192257797075311 -0.0158709474974255 -0.0106573114463492 -0.0103207495345927 0.0169532540221377 0.0055364742328798 0.0200809683541527 0.0013803330770485 -0.0063485244119317 
0.0059740487853645 -0.0152893936236117 -0.0164339087620419 -0.0082446981266188 -0.0182518997772149 -0.0182047021558795 0.0114482750531046 -0.0068508003555081 0.0160063683403183 0.0042029765869391 
0.0177862876835187 0.0116525772881252 0.0000636139407085 0.0166156359840797 0.0060225226599933 -0.0126568626674904 0.0146311088304818 0.0192845882656462 0.0049839124689296 0.0116757713553270 
-0.0080770287179174 -0.0026264229255043 -0.0183678701132237 0.0063020722067934 0.0021222571489608 0.0186791589098788 0.0164622943815424 0.0022211371196631 0.0032294686727500 0.0185277871028779 
0.0015607165746025 0.0086495559556871 -0.0170287179174169 0.0096237067781610 0.0116489150669881 -0.0128843043305765 0.0136411633655812 0.0026044495986816 -0.0118723105563524 0.0002374340037233 
0.0051509123844590 0.0162694173855105 0.0035517441712697 -0.0182811969791654 0.0013702810754723 0.0173595388782568 -0.0076448863066645 -0.0049018829920347 -0.0061861019424428 -0.0135752426721115 
-0.0163556369862382 -0.0199597146118523 -0.0124732063439336 -0.0152849611959796 0.0052082888271737 -0.0054242610971779 -0.0071077351069938 0.0017950987273782 -0.0057834171717068 0.0075106054814090 
-0.0035747128676413 -0.0054861305356958 0.0109957614710049 0.0176731456640358 -0.0156382946256905 -0.0008361188967089 0.0048430681432939 -0.0069543100294836 0.0061454271742944 -0.0065665560784036 
0.0096604729957351 0.0012852594992010 0.0171432135968711 -0.0007633163438481 0.0190820032349620 -0.0026952355862832 0.0032466033914523 -0.0185994878837176 -0.0141483671735047 -0.0056000099800036 
0.0025270553358250 0.0089210108375064 -0.0122142546853346 -0.0141994808229473 -0.0168578142643513 0.0164156169792370 -0.0104071104030345 0.0193938553103956 -0.0036621047522695 0.0198437476300623 
0.0171131995098367 -0.0163837549343452 0.0154379564244076 0.0057371529664969 -0.0056963357950809 0.0189382794862863 0.0002132998048071 0.0114045320200845 0.0085180524712948 0.0111998848511035 
-0.0161589511123008 0.0017353140125326 0.0001797284813973 0.0106127845084009 -0.0030675315563196 -0.0098006272994455 -0.0195380542858894 -0.0184439546935477 -0.0109670107786054 0.0131501222086757 
-0.0009487768556482 0.0002730176478286 -0.0004464905375580 -0.0094524441743568 -0.0129087578753089 -0.0079894590750112 -0.0154534166801357 0.0017511629883386 -0.0010314210134108 -0.0140973773254773 
-0.0144120953438010 0.0116679895424470 -0.0056075488932665 0.0099865288723165 -0.0025185036730399 0.0000084596049998 0.0088224301573711 -0.0035803875115584 -0.0066038652383688 -0.0043219825025925 
-0.0067773407862503 -0.0190561549958330 -0.0161234536340352 0.0069643595670228 0.0198834938295087 0.0110710362486017 -0.0022967017078279 -0.0022247327740639 -0.0131252017770358 0.0151737662092299 
-0.0137220249117479 -0.0078778556862194 -0.0142453046962829 0.0184229099815708 -0.0150144181494772 -0.0201428712111853 0.0014675938804146 0.0146629129105508 0.0035680175110503 0.0048626504375752 
0.0144118195419906 0.0110573028962483 -0.0040217719611534 0.0171657280669666 0.0021194795034747 -0.0035612777093133 0.0144008816041856 0.0094459120385366 -0.0028588588641570 0.0051092515649771 
0.0038594226537031 0.0011536280200661 -0.0166378234941844 0.0220834739808714 -0.0009996829689837 0.0066361417653248 -0.0090808835567581 -0.0013663039288498 -0.0192348372902546 -0.0008430460004502 
0.0153233469941313 -0.0182708189161955 -0.0138429960222425 0.0111743017663730 -0.0157789598364406 0.0029475304048321 0.0063758311357453 -0.0151556964482787 0.0154822850552906 -0.0059363811607227 
0.0221991337741255 -0.0199314506912666 0.0009257578679366 0.0227691749014537 -0.0163863767240873 0.0126873870710575 0.0046868127111116 0.0033856121430272 0.0000507994508039 0.0124743634407213 
0.0091007669167479 0.0055527319614306 0.0016646295646827 -0.0012328696322038 0.0188760486015740 -0.0009565651011525 -0.0071405709698150 0.0083068301541676 0.0002740377928921 0.0097869445899691 
-0.0080719699838430 -0.0045660780867624 -0.0018749210572289 0.0107628140021084 0.0185341904068463 0.0001531004745319 0.0039695306295689 0.0174007788752185 -0.0023419762344582 -0.0153437449830731 
0.0065006080078187 -0.0124465017620320 -0.0090719215225482 0.0196270699516161 0.0132134368344414 -0.0183133371240888 0.0064630568050823 0.0237588452835122 0.0038555014892855 0.0044160714879079 
0.0183052840448773 -0.0173228846983704 -0.0151116399251231 -0.0129318993962771 0.0077940115468017 0.0047274040985086 0.0078309062049626 -0.0019425203856023 0.0098372095348555 -0.0053419359590396 
0.0055956606533853 0.0128940054431077 -0.0175064617327425 0.0059023186341631 0.0012935177348116 0.0035998565306581 0.0130543928950476 0.0123322400020336 0.0054286644049432 -0.0008448007867294 
-0.0057372139385828 -0.0005777994222075 -0.0053424064424037 0.0049299094291132 0.0022633461912832 0.0171188279483619 0.0003226432408564 0.0119685649950092 0.0055377406369286 -0.0187841075022531 
-0.0093669612266989 -0.0192113752689152 0.0155350567745969 0.0137322467206575 -0.0130867220860820 -0.0089238337276048 -0.0070716290063752 0.0132310419815156 -0.0013699856397141 0.0004923165488971 
0.0117032151871866 0.0092350633356123 0.0078521087302171 0.0114521387892560 -0.0040493918518839 0.0189482098270799 -0.0033224603862539 0.0004693417036740 -0.0099493359795767 -0.0193642603968646 
0.0157531586276341 -0.0189984939546810 0.0149057902401431 0.0140132411947789 0.0101041850944199 -0.0005952159166497 0.0089686792024257 0.0052823585640425 0.0198330318986368 -0.0057158199817941 
0.0074171411263306 0.0093457651963160 0.0194982473295523 0.0060840958261607 0.0154069365252342 -0.0028194888200276 0.0141228409250053 0.0084237570596722 -0.0027003730362646 0.0142002656213732 
-0.0139772275781086 0.0191529975637660 -0.0188722036431291 0.0024928183898175 0.0017809838836413 -0.0024236245342801 0.0179954780312713 -0.0114670980623026 -0.0036568752652171 -0.0108213027851381 
0.0067366557817316 -0.0032392345957823 -0.0076216925565355 0.0061690115054781 0.0097323526718955 -0.0163267921994690 0.0096493423261208 0.0032160405285806 0.0033283486434523 0.0146763512070071 
0.0169225135044404 -0.0034565263832514 0.0193005157628101 -0.0052595599230934 0.0115646839808344 0.0088241218298898 -0.0176512955107273 -0.0196276741843928 0.0069685964537492 -0.0042048402356029 
-0.0074971770378735 0.0183312479018525 0.0147752311777093 0.0065352336191900 0.0193652150028993 0.0023810541093173 0.0112973418378246 -0.0167857905819880 -0.0062117374187445 -0.0038862269966735 
0.0134402464037217 0.0023477108704814 0.0143517342989031 0.0164922777922502 -0.0074471266823328 0.0061554870673335 0.0124018494436156 0.0153100603017393 -0.0067364844291718 0.0045129903258291 
-0.0079314581116691 -0.0186355879296300 -0.0072273677667234 0.0128810725521164 -0.0054805139316996 0.0097435779898688 0.0054638257433620 -0.0119447218857952 -0.0111758527082463 -0.0134232778417504 
0.0090807815213951 -0.0111947335707578 0.0143509367831489 0.0059529535256531 0.0098483230079043 0.0151111253094940 -0.0027470095288965 0.0077931049929944 -0.0055216902047383 0.0071612215876720 
0.0069099443482384 -0.0050167116361856 -0.0116646683765395 0.0172058800954641 -0.0190722374444844 0.0173512536327506 0.0096634585964619 -0.0013257168205563 -0.0162269918862079 -0.0082153808818941 
0.0073615088224419 -0.0096304409728339 -0.0121564677241083 0.0186483562064269 0.0032943641992500 -0.0160146046975644 -0.0062228487812369 0.0164258608434624 0.0125965595125571 0.0158185669659958 
0.0050429707429014 -0.0110299116769995 -0.0047089948007750 0.0125995870349741 -0.0161771266372480 0.0148527988858698 -0.0091199186719296 -0.0158806385256127 -0.0069119012941302 -0.0174756116975278 
0.0182196458871002 0.0022697124845003 -0.0051271997647348 0.0030985647028429 -0.0009829322346056 0.0097554818654946 0.0066775213657612 0.0058509012172728 0.0156828888543222 -0.0090372886740431 
0.0051798008431697 0.0178805135955247 0.0043238478170886 0.0256294175202607 0.0033084496633147 0.0072204308559683 0.0113336752786948 -0.0115820129961658 -0.0092582851248058 0.0093620668572011 
-0.0019895238459053 0.0081798052909553 -0.0034389821555540 0.0182051203470295 0.0155468968302490 0.0131562046665962 -0.0030382638483237 -0.0036099405987513 0.0014381773326511 -0.0198413414650338 
0.0048912461690150 -0.0026683123251639 -0.0085640175719056 0.0010962919860641 0.0114057031371007 0.0074641957300891 -0.0125571644295295 0.0028843712351145 0.0121328062146287 0.0114785823106389 
-0.0014753365116220 -0.0177204940353782 0.0068425955154601 0.0174411301234991 0.0147151838089726 0.0029966496790212 -0.0072431150176527 0.0143380297285112 0.0020374325049991 0.0127736358247455 
0.0018190832715694 0.0091330661890881 0.0081457340940864 0.0277578359230078 -0.0043545429989143 0.0199180166989525 0.0129266712537640 -0.0111540175551273 -0.0060622623203333 -0.0027806753480844 
0.0132507693542553 -0.0186079047317152 0.0006950884421512 0.0194470800552107 -0.0159635235070131 -0.0053106475268503 0.0151717645466375 0.0137427324235634 -0.0150719665206305 0.0050128281486138 
0.0199257928917718 -0.0140848510568761 0.0019356098488357 0.0312960907841713 0.0162082557794290 -0.0078340105499989 -0.0066253681217491 -0.0023820626474042 -0.0030212219052905 -0.0221556809855840 
-0.0030117944757734 -0.0040431759682692 0.0069391314531103 0.0105444307253591 -0.0149542645686711 0.0118613054735305 -0.0003016194916946 -0.0212073389283344 0.0114841476819006 0.0016922049567035 
-0.0103194452126445 -0.0102246641284956 0.0112160186269159 0.0189903571479576 0.0127486211036947 -0.0081072955052068 0.0157729772920003 -0.0133186172475483 0.0115558153693186 -0.0078260862730347 
0.0031124799711798 -0.0119216497770306 -0.0128209012447247 0.0247409648956631 -0.0145872205391458 0.0039942941465841 -0.0153224093649474 -0.0147881591398450 -0.0011915130962865 -0.0145240294885555 
-0.0050757872391998 -0.0058401093103569 0.0092406477494223 -0.0045380817324428 0.0003389941671658 0.0180013804422437 -0.0186679894180827 -0.0033123334215629 -0.0060974424549184 -0.0166756855143639 
-0.0006744985094208 0.0183890874649689 -0.0142749901853217 -0.0042356059621854 0.0156971393619099 0.0204904638858178 0.0112715075863078 -0.0089256797447756 -0.0128523913937893 -0.0088422204955118 
0.0126806060846266 0.0179656307604980 0.0064802808328150 -0.0056155046932696 0.0188896234284251 -0.0073429898717972 -0.0047361564084029 0.0016557670880753 -0.0140539793862017 0.0028101917041083 
0.0133309608451047 -0.0002565051315724 -0.0094444683958592 0.0074574136785276 0.0118182426880190 -0.0160239965363884 0.0026265330225046 -0.0059415161751957 0.0179461715736560 -0.0139256546900382 
0.0181232134798409 -0.0125172297611381 -0.0093947322478960 0.0158539602563588 0.0082222006920535 -0.0107329907153693 0.0061213268526390 -0.0084050025700457 -0.0108366118242377 0.0103122516143806 
-0.0108567395043484 -0.0063348430847891 0.0162075096913983 -0.0041374413227154 0.0148290550992685 -0.0053255215845963 -0.0105137862027375 0.0053518934486139 0.0057820089196750 0.0138246311226066 
-0.0046668457932997 0.0171745511003325 0.0141818366988674 0.0127849214785056 0.0134712957554000 0.0150026101427327 -0.0009510602991981 0.0014015452898244 0.0005602164817661 -0.0072468727810972 
-0.0007867782737525 -0.0164869770432033 0.0176984045454601 0.0000787818043888 -0.0007683582801350 0.0186435127662174 0.0023981365297611 -0.0097292820671726 -0.0053919173273235 0.0187582156165733 
-0.0087812434880434 -0.0066609698782311 0.0192104462577227 -0.0039488423806356 -0.0112924588763085 0.0015643787957396 0.0094062963716673 0.0099911496322520 -0.0141127485331343 -0.0046947407382841 
0.0098849452192755 -0.0198779259620960 -0.0056379894405957 0.0125461592455824 0.0080037842951750 -0.0065462202826014 0.0160667744987335 -0.0119614246040223 0.0025971251564074 -0.0022040467543565 
0.0191381572923978 0.0124851222260499 -0.0038447218225749 0.0128147221289685 -0.0166014587847530 0.0192382580073282 -0.0188927884734730 0.0108359019745476 -0.0148484755998191 -0.0168272957518108 
0.0009915063160511 -0.0015314426912750 -0.0005550754508512 -0.0092853061150799 0.0122275460066530 0.0080492231767909 0.0003997915469608 -0.0185784599985823 0.0115003770311488 -0.0008563239652420 
0.0081095166599707 -0.0109881677681944 0.0080048240078513 -0.0188965363320313 -0.0180478067221998 0.0126285426951598 -0.0157026530338629 0.0064540775687529 0.0036341552778552 0.0068652235454752 
-0.0029994622361529 -0.0159578593087986 -0.0042137768914030 0.0051657615493201 0.0101571984725471 -0.0183474365708423 0.0053913801603969 -0.0014314223353396 0.0098864130030962 0.0141465620835036 
0.0033195867410351 -0.0171754458304183 0.0176775387296914 0.0156982854976744 -0.0127831489915662 -0.0135546618890234 -0.0173018186535397 0.0009710397695588 -0.0186867106671956 -0.0047037809320970 
0.0078031369853223 0.0068838173671381 0.0047389765488890 -0.0008792960459868 -0.0161616679657744 0.0188993829851377 0.0085492712662922 0.0051198806612073 -0.0097638124177042 -0.0131290090867734 
0.0128439079984249 -0.0008772885550054 -0.0167055989170612 0.0007566621710076 0.0187139819482922 -0.0166468223430739 0.0147344248135294 0.0138717368057325 -0.0173321138294848 0.0013312029801338 
-0.0092619315169215 0.0172248915178149 -0.0190054788186920 -0.0030400799950853 0.0069970796488065 -0.0054193776341087 -0.0032375119531913 -0.0117266497859784 -0.0118395295757106 0.0006136086579014 
-0.0115679172224657 -0.0120021241350524 0.0125279288860649 0.0134695196323792 -0.0050479780950787 -0.0211723612826179 0.0168953033603560 -0.0037125925820099 0.0050448153746952 -0.0038053259501547 
-0.0097145604299343 -0.0148849048086708 0.0084433343962454 0.0160891116979777 0.0108451967520111 -0.0005895834249279 -0.0141097376339970 0.0033999182245046 -0.0165967566229700 0.0125224953725432 
0.0152598509156833 -0.0041097712141206 -0.0007161646140146 0.0238273868110049 0.0125049902801687 -0.0145812563058809 -0.0054380229026176 -0.0189751359500053 -0.0078017468432171 -0.0121700248968551 
0.0176272747453730 0.0008235298666131 -0.0018927856179088 0.0226237582619068 -0.0113831891358006 0.0059411589922958 0.0120704255703496 -0.0113416448856579 -0.0062139014567645 0.0065964860719034 
0.0175314849221218 0.0078787734185119 -0.0033345324305344 0.0237069922628977 -0.0156713490490638 0.0031280895683335 -0.0034772701501927 0.0080307647889461 0.0128839038052499 -0.0085334525104419 
-0.0061053913143008 -0.0029055871920252 0.0056558392498018 0.0237473415819742 -0.0005844105495232 0.0088364662719958 -0.0132602864865421 -0.0207925359180894 -0.0077107435494438 0.0011253849378125 
-0.0058076327595615 -0.0172527897464777 -0.0108661002129816 0.0022755388119648 -0.0091354159915873 -0.0071679143181052 0.0049040977627288 -0.0142266110086930 -0.0058883771969609 -0.0084869136592014 
0.0219892613326902 0.0116497968946874 -0.0027878249606721 0.0208718553700662 -0.0088577471028608 0.0072887132433630 0.0138159547166129 0.0083262699783505 0.0002399924684020 0.0183503239418097 
0.0193732654890318 0.0075276530541643 0.0118632767467654 0.0036982833007763 0.0007906515726593 0.0074206537068406 -0.0132036428718084 -0.0167515966249290 -0.0184244867326713 0.0143562783032516 
0.0198759897258837 -0.0167521624876365 -0.0018074845767394 0.0120116418445498 -0.0169501963579389 0.0051648125208612 0.0185967055861885 -0.0041723022652021 0.0126774103359630 -0.0091112340916280 
0.0045730306271554 -0.0169892804775594 0.0173655182728452 -0.0069195332964254 -0.0139479622967926 0.0195250546347519 0.0163553533932905 -0.0044335686188048 -0.0152986017534410 -0.0171917071511301 
0.0035850580961156 -0.0186524836170524 0.0072432632272682 -0.0073718828941441 0.0075481114016301 0.0193439915675947 -0.0061371161208118 0.0111380250560852 0.0029501257288159 0.0099588649142442 
-0.0129298686111045 0.0150666029683188 0.0016248313074088 -0.0068657862416895 0.0020954777104891 -0.0145677384149266 0.0215234091505199 0.0133707201357335 -0.0140669758759513 -0.0138126489852364 
-0.0181373978734701 -0.0071322492372061 0.0159592090631211 0.0012020652916470 -0.0100324255498960 0.0006667283523489 -0.0112640269795442 -0.0077177135684705 0.0102848339242477 -0.0072634495985723 
-0.0043459456486214 -0.0141276898153491 -0.0024780914951020 -0.0112015521502378 0.0136612202687457 0.0072772080644546 0.0180897398933213 0.0213909871435702 0.0097144019476659 0.0072968995905769 
0.0083589596944989 0.0115715238136932 0.0030832391604359 0.0025506367640665 0.0064473771217463 0.0023632324984702 -0.0120582365601923 0.0006049693946801 0.0075237731117269 -0.0038221013755716 
-0.0027352540917318 0.0059212762852316 -0.0057841608853161 0.0120451338996323 -0.0030949396308499 0.0078251251483955 0.0033141488481044 0.0186884945477496 -0.0051296283635881 0.0080211304945267 
0.0118438844331323 0.0009407375990056 0.0019338231971686 0.0105336351073171 -0.0172708942647672 -0.0062469473369462 -0.0102094322684682 -0.0141435344025124 0.0168777557750440 0.0070722920284865 
0.0066208812151771 0.0018530410736628 0.0022412176916542 -0.0175634190484322 0.0191564683980834 -0.0065960966941382 -0.0113955593321561 -0.0038480392962284 0.0137533236583214 0.0010491122495877 
0.0110751670888394 -0.0198156682027650 0.0077376628925443 0.0183812982573931 -0.0073055207983642 0.0125595873897519 0.0199218726157414 0.0108615375225074 0.0173021637623219 -0.0148265022736290 
0.0198613012594350 -0.0023211394561314 0.0007136525849182 -0.0080796542238841 0.0081722464674825 -0.0024683582885956 -0.0080752021633974 -0.0092197748086493 0.0197760057172995 0.0009827661942682 
0.0087533194194331 -0.0020351762234765 -0.0165186573876972 0.0173940395754920 0.0179943251535248 -0.0125556145248583 -0.0100000869936253 -0.0031467813070588 -0.0095637489775836 0.0118628816318506 
-0.0206207894195247 0.0193060803690727 0.0181811702443630 -0.0015523094930268 0.0168501699975354 -0.0007580650147716 0.0192461123712127 -0.0049881894491040 0.0090250967245833 0.0039268985414668 
-0.0049847397511043 -0.0140560960567134 -0.0021673140646151 0.0094281121922480 -0.0022144870161024 0.0149774414692040 0.0188301298774466 0.0024902663394724 -0.0022276231953251 0.0036708137929248 
0.0094981143776349 -0.0026233162813082 0.0049642998493012 0.0001051053169752 -0.0149281604701823 -0.0085731905725732 -0.0073433010044037 0.0067434322417972 0.0053237941339630 0.0065211339445231 
0.0084081924653440 -0.0082886364738409 0.0129905243898921 0.0189727621604410 0.0021090317624350 0.0104816671974498 -0.0152290675702973 0.0050542285656869 0.0075068958248594 0.0202500501834030 
0.0092088432342144 -0.0091740246555858 0.0023692780961370 0.0193505522708152 -0.0131764172191871 -0.0112663057290930 -0.0120330817065469 -0.0047698235602932 0.0053753371864098 0.0105188424695809 
-0.0013083532992876 0.0213814322923091 -0.0045025733500811 0.0114602492206029 0.0093541105790205 0.0133688773876624 -0.0093286807050701 -0.0102788014688666 0.0061541212911526 0.0133644507325501 
0.0040782047996848 0.0012949504117134 0.0196129944708614 0.0216300703093183 -0.0143312950112293 0.0209330384644384 0.0087146039457566 -0.0227533729821256 0.0140081196704179 0.0093637404175171 
0.0106832894339304 0.0180866582049092 -0.0070066948609100 -0.0058340244680517 -0.0170536992127506 0.0052818274726819 0.0093958415685773 -0.0084200833518473 -0.0170486334893917 -0.0084143741625685 
-0.0010739149982499 -0.0049745522492843 0.0045532992222497 -0.0054668004555265 -0.0090241139324249 0.0220315596717984 -0.0097648175142505 -0.0066832283294193 0.0098695138008215 0.0178557040088944 
0.0050643501920449 -0.0045671864588758 0.0236284398472963 0.0133711578042728 0.0051198560012907 -0.0051658139917335 0.0086358636235129 -0.0041985521465019 -0.0101313945113857 0.0226541497265765 
0.0074080735283376 -0.0008676629902399 0.0207114896912897 0.0202135865914557 -0.0069241669175912 0.0092848683046812 0.0157292207501429 -0.0115184271064948 -0.0085715145996769 0.0134509290364945 
0.0163031544388232 0.0075977504959930 0.0213896145081897 0.0029154873934740 -0.0065352039321298 0.0147296020261330 -0.0076112484773745 -0.0216549444713375 -0.0051697785769096 0.0317413685511976 
0.0114010325240788 -0.0150334760874704 0.0108540965281863 0.0069718063812821 -0.0054904103422067 -0.0002873226273860 0.0235028082695688 -0.0089071816574112 -0.0086783954946606 0.0349445019323521 
0.0194612072290306 -0.0090680194490402 0.0201727386281179 0.0250260520964036 -0.0148791949411462 0.0072757173012201 0.0058353539863843 -0.0157808279902324 -0.0107452336164933 0.0237564502029589 
-0.0115314885855585 0.0066189018659010 0.0132997624747974 0.0005608803692213 0.0107096904034039 0.0052325359538729 -0.0000944581688338 0.0019117123174537 0.0106894967469409 0.0017442307296985 
-0.0153101623034582 0.0208598179285033 0.0053169657368729 0.0112780861541150 -0.0109573824465235 -0.0137896928025693 0.0119026406893077 -0.0058405234269984 -0.0032290980277851 0.0142406246211892 
-0.0062335183843517 -0.0074576553716623 0.0156373955900174 0.0243679909529578 0.0127140582110243 0.0033610068426332 -0.0127806597743413 -0.0013080881894259 0.0064100134138508 -0.0100875186725175 
0.0106621212000963 -0.0051250372106382 0.0089052722484254 -0.0094583183189962 0.0051906487191372 -0.0030055266580016 -0.0058130571802986 0.0148676423353302 0.0108593023245118 0.0059055716763615 
0.0002834796104349 0.0187285771421192 0.0063812565167428 0.0026717170794107 0.0002348762789492 0.0118323188679677 0.0074823453792326 -0.0117388734078837 -0.0135728469824097 -0.0132832251046851 
-0.0033154051023421 -0.0086936495942588 0.0044472253072631 -0.0176554745633181 0.0163921993447356 0.0013446492556044 -0.0015281617725064 -0.0179835240275469 -0.0038404446861239 -0.0049670629102446 
-0.0087220669603082 -0.0093911030679626 0.0221999896489157 -0.0061036809438429 -0.0056696892749413 -0.0113691360110546 -0.0022427220557280 -0.0127896880378782 -0.0142834279400414 -0.0089204073798131 
-0.0007042718487346 -0.0173502931577726 0.0131511671816707 0.0145829626118488 -0.0097400432624527 -0.0045469074931051 0.0112388848218063 -0.0062844822681406 -0.0110354962428296 -0.0097931066876964 
0.0023619492378716 -0.0046176483370223 -0.0085774254750685 0.0097476942931987 -0.0130336351882251 -0.0189789468612186 -0.0179416881315622 0.0171829488316466 0.0180488533894788 0.0016973217331007 
0.0137453237439998 0.0066693790793204 -0.0071710457224095 0.0019188225616037 -0.0072585506886471 -0.0118629138281552 0.0043535947511454 -0.0192865463025111 -0.0112843070687807 0.0102995136423734 
0.0132454561189498 -0.0134136847593325 0.0134340017108888 -0.0046779766906205 0.0134519486068300 -0.0050676008471824 -0.0189033448606453 0.0160851768669590 -0.0049684296474436 -0.0067345943632609 
-0.0043830683309427 0.0168410508133770 -0.0173688461534271 -0.0079708243049409 -0.0018988616595965 -0.0067042037178242 -0.0012176885280923 0.0151864186189374 -0.0108273567918943 0.0122775963621937 
0.0188576201953354 -0.0111864361831231 -0.0185148723820890 -0.0082314260645118 0.0089327677236244 -0.0057252621944666 0.0044365693893383 -0.0143218790101648 0.0154102021620621 -0.0006294185729748 
-0.0195312592782405 0.0070202539279670 0.0165400852178128 0.0012794418282787 -0.0092545095536179 0.0154313648939103 -0.0134376106816346 0.0092722512067267 0.0153496083624153 -0.0177881005083925 
0.0183731982847808 0.0011849709762092 0.0181547878548008 -0.0053230893705896 -0.0130651162406137 0.0153771800368582 -0.0136407646031747 -0.0155230084052505 -0.0061634233084939 -0.0120940512753781 
0.0151414068177310 0.0113184131181833 -0.0013864416876031 0.0151724639945510 0.0074773387570444 -0.0050498538233597 -0.0149737521395600 -0.0043968829744202 -0.0043743778888956 -0.0130879200328216 
0.0079169730092522 -0.0161910734899840 -0.0185356790279259 0.0135618974802573 0.0092827897919169 0.0090212000559074 0.0062503514018494 0.0078659055126421 -0.0113960764029361 0.0060962342371092 
-0.0087257607297583 0.0108907085438149 -0.0114348703792140 -0.0047284267405245 0.0174945323487552 0.0067808417041446 -0.0176880026935762 0.0140323037689954 0.0131488783942286 -0.0016673751241085 
-0.0073632286569534 -0.0059164840563265 0.0005367670570579 -0.0123278286907181 0.0114152217992412 0.0104585601987400 -0.0173263798718880 -0.0166981330404432 -0.0065858374303835 -0.0078388348492914 
-0.0052143055229362 -0.0152679852733591 0.0213945046431196 0.0150722292530718 0.0145016586220354 -0.0113877822824656 -0.0085165712148810 -0.0148660904979548 0.0216383869542966 -0.0001798188997626 
0.0057356973020735 -0.0087675139909797 -0.0032863946085473 0.0010295677666083 0.0163411365407563 -0.0048740923299769 -0.0079764027270906 -0.0089108679300458 -0.0108718886172535 0.0122471596958829 
-0.0095145757460286 0.0002274331467410 0.0122324491154403 0.0059028770033104 0.0118704585326519 -0.0062038020542334 -0.0044784724327292 -0.0225226990350487 -0.0005379646903246 0.0123343388775136 
0.0034469347454398 -0.0036946217128175 0.0271486251840248 0.0145272549242642 0.0073935280074111 -0.0061325897168640 0.0085480026704751 0.0046974887830217 -0.0008544062752472 0.0128424440686601 
0.0026260728699950 -0.0119369462400970 0.0087275517851512 0.0069371755127786 -0.0148673470137795 0.0074880211803849 0.0188696016290743 -0.0014269089954000 -0.0048911199015795 0.0170612256504743 
-0.0023970370390390 -0.0172353779362307 0.0267691322996943 -0.0139145691391033 -0.0075028914212585 0.0052877024512736 -0.0133818692538564 -0.0052402279213405 0.0072060301812949 0.0178601068603018 
0.0148321343391189 0.0179253901180886 0.0254365968709066 0.0134980683541893 0.0151249058365545 -0.0010675138804916 0.0172708807238577 0.0103468764664436 -0.0188627235847919 0.0272300115708641 
0.0077872683430390 0.0090014404640344 0.0048414909623308 0.0047253223551783 0.0144369780203385 0.0022409005407853 -0.0100396804536391 0.0086952487127096 0.0088057344387218 0.0236322829239604 
-0.0158092825505023 0.0098717190898932 0.0030754418579784 0.0056856992775776 0.0173379052316557 -0.0030792527410746 0.0032271287262021 0.0034984047995180 -0.0237474533718551 0.0031320955578169 
0.0074483427691718 0.0129811230850649 0.0102940478198969 0.0212853572803360 -0.0201842211910303 0.0006671522505571 -0.0149813495746312 -0.0030074342087002 -0.0230566958581371 0.0157467277371307 
-0.0062080344296998 0.0121349858162678 0.0170146848222978 0.0013845844815141 -0.0040577256989259 0.0173306049973605 -0.0028293204856669 -0.0180718531429114 -0.0187122658072086 0.0106861365332894 
0.0189119512061541 0.0123558407862790 0.0231567638572298 0.0040064611428999 0.0183539549084706 0.0105481379052202 0.0169506505194577 -0.0053047997733273 -0.0242147257927912 0.0040510337923657 
0.0008837355148023 0.0052474223701166 0.0198656695068291 0.0192898755126452 0.0161384235279942 -0.0033373766658768 0.0185610851828184 -0.0059590185518501 0.0044693924739060 -0.0068057536893005 
0.0010982596438618 0.0179246138822295 0.0129053320054990 0.0026625587626688 0.0036032096840679 0.0233287174263555 0.0141301193411629 -0.0170490946936407 -0.0223282704251183 -0.0061006807447493 
0.0178249020608109 0.0090651538269963 0.0170338678559107 0.0127312153693103 0.0097594922417380 0.0125645868515100 0.0100564217963857 0.0073187207484185 -0.0084947846613843 -0.0132321275935561 
0.0028356171908875 -0.0061634787508155 -0.0051057228831119 -0.0041002850677386 -0.0179791510771203 -0.0003959048018606 -0.0120438078968472 -0.0128190311858431 -0.0173783800167310 0.0111884149568183 
-0.0102682708255588 -0.0083771303586580 -0.0116024208175970 0.0036342206248722 -0.0008509247423933 0.0123214317860495 -0.0123996269884323 -0.0046186032213941 0.0174122627915313 -0.0158596551230701 
0.0191094704419696 0.0046241797809278 0.0016425005017541 0.0064167302338071 -0.0005871602836191 0.0148855900608599 0.0055717220717668 0.0187403395850701 -0.0054075126828666 -0.0020083028987387 
-0.0173885759168153 0.0031752470836376 -0.0024496779196351 0.0107879195000829 0.0060310982812928 -0.0070311347160142 0.0057825798837271 -0.0069278089153255 -0.0160511772102979 0.0004066865305916 
-0.0178700386084213 -0.0089761330339010 -0.0077129146800932 -0.0138640590565701 -0.0125644703512680 0.0081101905356338 0.0126861730328434 -0.0021932687385588 -0.0099547973225707 -0.0017000989819514 
-0.0081453264039416 -0.0116344323240700 0.0143116431730442 0.0173849254156660 0.0034040345469527 0.0054920122484308 -0.0189124292248938 -0.0180480361339152 -0.0034075749723457 0.0003824592179235 
-0.0167315378681425 0.0009720528016113 0.0036425400707149 -0.0147256117118969 -0.0186120181890316 0.0191498145151476 0.0191373342948488 0.0054888720219072 0.0081542112255790 0.0121754903137881 
-0.0010799258323430 -0.0004404890951534 0.0088875299066371 0.0140728113758862 0.0080445105037386 0.0033090474249370 0.0035900611160430 -0.0051999937087780 0.0075814543939329 0.0167069299878878 
0.0150631999853463 0.0174170514420551 0.0017331937548509 0.0020051316954571 0.0150856062129018 0.0128139612035565 0.0092493748814726 0.0072646102063004 -0.0106290741833908 0.0177705715973053 
0.0059047860964292 0.0182435461846708 0.0152489972600038 -0.0014817963353408 0.0093702756673502 0.0130192536203359 0.0024017934627831 -0.0202392825979815 0.0032598603240615 0.0110619152994034 
-0.0070402781693628 0.0114048211293336 -0.0069980734587288 0.0122581679897298 0.0084837999932827 0.0033609255317042 -0.0009145076458117 0.0090542936694074 -0.0180979735333313 -0.0063107051298802 
-0.0018151379169035 0.0093082333462237 0.0127702753684882 -0.0013435957128104 -0.0174204283254642 0.0000692177779085 0.0075431797970113 -0.0072869767457123 0.0010336997261109 0.0123838589817041 
-0.0040001268745501 -0.0021708908347334 -0.0075057230871546 -0.0131066839335580 -0.0157672133419748 -0.0123050074733812 -0.0114770109002064 -0.0016125810459763 -0.0161609979698833 0.0008487059095090 
0.0075403603414455 0.0080193778002119 0.0167549150940121 -0.0143494135019745 0.0027729011995017 0.0189216866545061 -0.0038232835986341 0.0049004870223992 -0.0041339097501817 0.0194466507579168 
0.0131155342814048 0.0040362595664363 0.0177208772092524 -0.0192569059072921 -0.0043301884817341 0.0210232267652442 -0.0053432595518165 -0.0108371628137996 0.0207044400097669 -0.0029441800082018 
0.0173339713308511 0.0002306661837201 0.0097665435848891 0.0120057176289562 -0.0071793363015703 -0.0013874643152096 0.0016174109500678 -0.0197228104277337 0.0219770281878224 -0.0089973594013803 
0.0194068625314442 0.0008162986169648 0.0274063091309903 -0.0110458197652487 0.0096698814641741 -0.0110254341766856 -0.0190733772500219 -0.0139038655487612 0.0009901112403645 0.0104223096310151 
0.0074445567578171 -0.0132172423263120 0.0250703968282675 -0.0062995828052491 -0.0149356179953477 -0.0005077720941864 0.0166661109471532 0.0189868873981948 -0.0101427926949538 0.0115010878869171 
0.0013475152037550 -0.0070281701769520 -0.0037538490398215 0.0017518941228516 0.0100276139047220 0.0176910934134715 -0.0103425980067367 0.0062914114150400 -0.0002774843887298 -0.0021770121064704 
-0.0011180083706399 -0.0007234737518334 0.0265937227452091 0.0113398525885698 0.0038369406369667 0.0164672142513806 -0.0159486994634748 0.0223556287775357 -0.0030906156966230 0.0014069170813781 
-0.0163463624920495 0.0001900192224147 0.0099293906651334 0.0006557392518248 -0.0067518099052498 0.0074220459852428 0.0010481443569548 0.0120770560037322 -0.0161744969806040 -0.0052430890183336 
-0.0064010302161979 0.0176003300496223 0.0100801483210744 -0.0033442704522566 -0.0164497383069625 0.0172112409324718 0.0004122888292668 0.0096347926591090 -0.0056607099369707 0.0209461993249839 
0.0109065482536660 0.0075155582529968 0.0191231185598995 -0.0009596943017716 0.0198142481702577 0.0139368841909452 0.0086597282481634 0.0177033364894606 0.0058101059321894 0.0128041209961565 
-0.0163278827579264 0.0123329260488483 0.0197034376141600 0.0083296594850693 0.0050815957571005 0.0186270147284695 -0.0113274303996634 -0.0204260312252185 -0.0002188463946134 -0.0070778176976142 
-0.0171146528205356 -0.0007117213634939 -0.0080600747954322 0.0264875855027373 0.0168975083991992 0.0168169508243657 0.0052562446076826 -0.0263628689764872 -0.0023215908223841 0.0180963695912325 
-0.0100981704605555 0.0094384504980014 -0.0066734743568002 -0.0034901370326960 -0.0126291752491624 0.0120732400392966 -0.0126780477235228 -0.0074737551510230 -0.0039452141561321 -0.0114251387660456 
-0.0116773617872624 -0.0031772985589028 -0.0073743226128122 0.0005978270240398 0.0170408208212775 0.0011573469831611 -0.0165774084135829 0.0023959298415280 0.0084606369108529 0.0159529308601925 
0.0084632354869063 0.0145100483180161 0.0060383737563298 -0.0159750712052144 -0.0132474935579411 -0.0044636956847002 0.0162428290852769 -0.0161896790740481 0.0035920376550073 0.0001701775462272 
0.0116513841070613 0.0009996274718813 -0.0061455364099189 -0.0072975367675437 -0.0182034493530924 -0.0027116401328733 -0.0036225781933970 0.0157383598153880 0.0106444267839645 -0.0203138161285794 
-0.0197406068499792 0.0151840944854406 0.0081152039377136 -0.0095045966945279 -0.0173818604371475 0.0166262520944576 0.0207354094816651 -0.0084904484422122 -0.0031441289177847 0.0017501600876155 
0.0126112723951145 -0.0171838769610735 -0.0104768918896914 -0.0002425633678119 0.0005703546792265 -0.0159478703488092 -0.0036213801205749 0.0078151980794649 -0.0213446656669885 0.0062301109021521 
0.0016768068241398 -0.0075473120126246 -0.0021289918605425 -0.0139052172683589 -0.0127283698822633 0.0169415068629720 0.0024780861370245 -0.0031813947387901 -0.0183661445932855 -0.0001677453240104 
-0.0077859034175329 -0.0084631530079638 -0.0099361461966591 0.0001683746419764 -0.0117392498550371 0.0025616356687039 -0.0184772244852619 0.0062232872410678 -0.0139212031597186 0.0081469478661082 
-0.0029876591263025 0.0091973318856770 -0.0188639888178405 0.0144049417146488 0.0036848048341319 0.0190745775224409 0.0115245942773150 0.0136997589037751 0.0021905716716336 -0.0091636379888658 
-0.0084583006004545 0.0094006190183602 0.0096879898195751 0.0000004714611764 0.0176268807031465 0.0117528184952258 -0.0104259165123104 0.0125612231643394 -0.0177782814692462 0.0129676303607453 
-0.0020435357889572 -0.0127391059632366 -0.0131419048745035 0.0121583717617742 -0.0062769779411685 0.0190336494116430 0.0194114387396204 0.0134388325065736 -0.0165389453019585 0.0174410546860411 
-0.0147944986952454 0.0037764134320610 -0.0113904641356243 0.0178005238310603 -0.0025118195798200 0.0199267845709153 -0.0079554819620245 0.0047392061784785 -0.0064925516425679 0.0153149320562323 
-0.0154584411757212 -0.0084518729292097 -0.0096849711824838 0.0177093480519539 -0.0106814068855247 0.0164203130295978 0.0155680765795413 -0.0125778084286143 -0.0087056991597995 0.0182484527450575 
-0.0128886740730841 0.0133439457711590 0.0092787063274758 0.0028273116222927 -0.0031756637833568 0.0155075790665433 0.0144520659409448 0.0034355724837741 -0.0114348834422199 -0.0103884613088944 
0.0000914405991855 0.0146087520509058 0.0048771177266952 0.0104035264159504 -0.0075758080301928 0.0059565107365869 0.0078902116406143 -0.0210310484668969 0.0140876031134782 0.0034852872991981 
0.0167324622857791 -0.0052548551323329 0.0027040394342795 0.0038708633413057 -0.0195812150025380 0.0034128414183841 0.0146520507600947 -0.0114345062398189 -0.0030845929017418 -0.0061169208960017 
0.0036761624235231 0.0204769986716309 -0.0038841631369455 -0.0218595483518492 -0.0101833060656181 -0.0019488632140692 0.0079531314065467 0.0156977318596650 0.0010670462033568 -0.0047426933557676 
0.0054161956085784 0.0047407464176243 0.0261906502519270 0.0049062269835874 0.0048098395673448 -0.0069092176116827 0.0204146309695768 0.0029207708988626 -0.0014288550655675 0.0166917459381780 
0.0198466526868491 0.0131520400574718 0.0093875645261021 -0.0090193401650694 -0.0141927596226124 0.0089754174116177 0.0131624017285654 0.0012375558389713 -0.0053099789372386 0.0080527539274869 
-0.0105437122127389 0.0037971271600759 0.0013215586415987 -0.0223580016324368 0.0103020812262910 0.0163300417049686 0.0147490389779071 0.0012835196609738 0.0208905758075147 -0.0110544905627123 
0.0226034189920370 0.0194727460127862 0.0241929549966894 -0.0069138797835244 -0.0058858782926579 -0.0143455064399561 0.0116147054729719 0.0075519805871307 -0.0169363588542208 0.0151682903820429 
-0.0162318786963051 0.0043229238637116 0.0130069523249250 -0.0164867581787748 -0.0168390695495026 0.0133953352393735 -0.0104394826595014 0.0143975254225608 -0.0208373391619733 0.0011690006217272 
-0.0103626871608244 -0.0178481820430494 -0.0073476742449600 -0.0000190914922715 0.0014221306646691 0.0243250904143729 0.0066789681567387 0.0172983079722542 -0.0137127700770674 0.0050590856557085 
-0.0246205981739280 -0.0127264639070097 0.0071265001952235 0.0250575945519269 -0.0046273451650374 0.0268097556482485 -0.0077706873581508 0.0165206853221414 0.0015102522674195 0.0077831624144059 
-0.0225361264671983 -0.0049167271012094 0.0060056703925732 0.0076097867618073 0.0068505095182397 0.0015899408215185 -0.0119252691249075 -0.0105331796067319 -0.0210835654908083 -0.0113661504988736 
0.0108759779226746 0.0264273412271006 -0.0223667852019842 -0.0011108736398420 -0.0055509671788646 0.0142828761743924 -0.0073556587865932 -0.0046441279438543 -0.0190740309657065 0.0098380526726742 
-0.0124643277474875 0.0023797340419427 -0.0138496871805590 -0.0109940273065990 -0.0193435332258803 0.0197508768729609 -0.0190214063539502 0.0020268255975524 0.0070654392203374 -0.0081421148898891 
0.0134653310822568 0.0092134084193923 0.0087624298328501 -0.0087123634422914 0.0195528186920965 -0.0146437272628307 0.0126351897676875 0.0026512122332652 -0.0082095557846531 0.0069658804134613 
-0.0062034879677316 -0.0058423439476875 0.0162085731750241 -0.0088195352649958 0.0026799557620126 -0.0125179137875146 -0.0036915208540505 -0.0065229960809795 0.0040588905738873 -0.0124420404067005 
0.0161865263300337 -0.0192244717705064 0.0039407371252340 0.0178863732064678 -0.0022496425746478 0.0020023432732974 -0.0147784950628991 -0.0020843160998602 0.0041531752257243 0.0204676820078995 
-0.0054370132418725 -0.0103837769898385 -0.0093104544915141 -0.0007112839758965 -0.0189424988401416 0.0097194725070125 -0.0191074350938562 -0.0082258160753708 -0.0216953121197603 -0.0030673330289044 
0.0009275621683406 -0.0019604261995804 0.0018673739181910 -0.0032027719900668 -0.0047964697491450 0.0187318129345165 0.0090637076493905 0.0159261867610810 -0.0140107490462379 0.0099676274679496 
-0.0081018507437551 -0.0194377465509714 -0.0156546734275031 -0.0195519084780483 -0.0080987939602311 -0.0164436997770885 -0.0157222213725154 0.0029052765934439 -0.0133375000207040 -0.0209066518194455 
0.0175516716853904 0.0101679660594036 0.0167200236033369 0.0033166135351848 -0.0176964653116964 -0.0051362432763328 0.0138005314604528 -0.0156575103435418 -0.0077220908882946 0.0016872653022254 
-0.0174991244274771 0.0097647863498981 -0.0051045865110203 -0.0162369692258626 0.0131284524063845 -0.0023254326422420 0.0200789605888549 -0.0154443348592549 -0.0185132488581394 0.0187412806460711 
-0.0008547346242345 0.0160114414903226 0.0186768600374632 0.0146013739059796 -0.0148924222540971 -0.0116847654476220 0.0046348806224274 -0.0114285913942557 -0.0136547606339713 0.0186813885605974 
0.0110733832347644 -0.0066996749289317 0.0193833218553033 -0.0004297147444393 0.0135642567217017 0.0181687410083579 -0.0062364465322230 0.0113559373760186 0.0074989188936886 0.0061040391147121 
-0.0072569738501643 0.0164482479978623 -0.0162665720614668 0.0104009583913900 -0.0056965849787896 0.0020940387168451 -0.0140263364174280 0.0155740912899069 -0.0068505983896771 0.0103069196498369 
-0.0111273937940514 -0.0158595347077374 -0.0162059952976308 0.0086703830823636 -0.0111557354952509 -0.0008884284640087 -0.0145122631821992 -0.0113140773930799 -0.0195230490545857 -0.0118337097491475 
-0.0045967618952528 0.0021415755112905 -0.0087213601128918 0.0107131895480009 -0.0116681505811217 0.0123929208126024 0.0116613410764768 -0.0050827751802296 -0.0076205978576755 0.0037718057291370 
0.0102395722209729 -0.0023059026973666 0.0136656729371374 -0.0045278846069434 -0.0174752566478111 -0.0080701472129829 0.0060128331895577 -0.0087894969139158 0.0003097762754126 -0.0063603772470939 
0.0032365135725032 0.0098609747600041 0.0160202329047710 -0.0094648741632294 0.0118994534408920 -0.0036786304302766 -0.0087692885539637 -0.0122069885780842 0.0065413175938136 0.0130267490752023 
0.0061739044799467 0.0071469757543154 0.0125649186360542 -0.0197507158925273 -0.0167063136565161 0.0129293393528869 0.0092997211822058 -0.0090757298490897 0.0210558785509436 0.0122914076263628 
-0.0032603667732548 0.0090036749962460 0.0237809174906430 0.0016204445971822 -0.0169471469130603 0.0121052187024358 -0.0166711745149148 0.0113367706147519 0.0195714993994358 -0.0076821774589158 
-0.0026165540982557 -0.0090963461237609 0.0199362316193197 -0.0251156955250623 0.0011630794943952 0.0113436290521242 0.0225814625217798 0.0151276882353107 -0.0005338925966888 -0.0067372536868113 
0.0164579431347366 0.0049038283646611 0.0074903333397277 -0.0172082248853850 0.0005495877630302 0.0132468540458749 -0.0102295260792390 0.0190511424446932 0.0210863880765707 0.0114964225037685 
0.0069088238873214 0.0119042906022703 0.0152716616619165 0.0049298000024819 0.0035760188293802 0.0086923881972503 0.0111977064321218 -0.0098567480048794 0.0034706308214652 -0.0134036568077544 
-0.0085744257103526 0.0166307898109026 0.0284344023657809 -0.0032608595163122 0.0181750308779759 -0.0122774017962619 0.0002692439150716 0.0106102599732921 0.0162020300913150 0.0054680243320166 
-0.0055471946714289 0.0163431474632500 0.0048414710344951 -0.0158047170520525 -0.0184330477288493 0.0163473937420328 0.0043808361319159 -0.0175119820248328 0.0164648653887128 -0.0095515866088171 
0.0084864329678858 -0.0106804102542011 0.0111460574194212 0.0025009400775874 -0.0153979761899461 0.0011236307950020 -0.0116129345609699 0.0013824457545659 0.0100725230830138 -0.0074566951262784 
0.0043104170591044 -0.0048398375313858 0.0059878560641840 0.0026444169089911 -0.0096894053684867 0.0029521250799312 -0.0105370078856468 0.0219531923932752 0.0004906778724498 -0.0068326904990273 
-0.0013453440276954 -0.0083940443654925 -0.0177495224146911 -0.0133596707458122 -0.0093871071967564 0.0205266959261824 0.0035139357627824 0.0211554361422356 -0.0014597877971659 -0.0050676650565427 
-0.0021408399827114 0.0252314442223100 0.0091810319959908 -0.0041994133485744 -0.0122118709737889 0.0035445412094355 -0.0092148124282784 -0.0028808036026487 0.0003149373081699 -0.0089911213789645 
-0.0155002792608629 0.0094579997103677 -0.0170228760693083 -0.0062116750645082 -0.0167748944245259 0.0283882798364047 0.0125394521981792 0.0049034965979895 -0.0102312408438641 0.0229819271366907 
0.0195849863514099 0.0236505148911007 -0.0100881455422054 0.0207727001836516 0.0007680249178524 0.0253733840295838 -0.0117711772830268 0.0032176225647978 -0.0179701075499932 -0.0066652048393339 
-0.0123953669730157 0.0040112197305794 -0.0123956179226110 -0.0021139577016078 0.0180285451648001 0.0092423071158801 -0.0074918130197181 -0.0062741874086057 -0.0145670388866714 0.0253252330675456 
0.0075939144069334 0.0183163745414427 0.0151334682727256 -0.0087717536923897 -0.0111714018566020 0.0226170968311558 -0.0019035106777783 -0.0077985556095424 -0.0081759937762121 0.0098282163012960 
-0.0006269689096832 0.0005449266592390 -0.0132309975339033 0.0057929520916010 0.0144375311904282 -0.0146847849389778 0.0146874022894676 0.0085717355149646 -0.0026566324453809 -0.0008541110789032 
0.0054487889714701 -0.0103927916646822 0.0171119586354708 -0.0045733302527929 -0.0128854490360862 -0.0139541823563313 -0.0198677713124568 0.0046101501129482 0.0092515844913734 0.0124509528427494 
0.0091545441105501 0.0125561713891220 0.0020840060487682 0.0188177368142144 0.0087827170171370 0.0009462674361934 0.0154676117659156 -0.0161197546386316 0.0047361914538644 0.0025245039914846 
0.0051071720976302 -0.0099282168505042 0.0102461193609562 0.0096955771772730 -0.0080221861278388 -0.0126628139095152 -0.0038458169682970 0.0155064776909112 -0.0147358996477953 0.0150647555340505 
-0.0117348690268327 0.0181906560983563 0.0036297922083180 0.0182004627901720 0.0116830957976012 0.0203127500558921 -0.0125196181805184 0.0181421544086328 -0.0170240671569436 -0.0005971705218008 
0.0171337045919949 -0.0049625103846351 -0.0192932232410087 0.0152255331968452 -0.0096981719412824 0.0125336810597752 0.0113731163155520 -0.0029459736241099 0.0193374731035579 0.0127070463285188 
-0.0180877212977097 0.0088850884704993 -0.0192635123473199 0.0136894861151810 0.0090597247230445 -0.0187570110240755 0.0067704829858005 -0.0070404935228900 -0.0007910540854010 0.0066181173549940 
0.0001025218344983 0.0092322948848079 0.0032156511306079 0.0110472353702773 -0.0034589678640095 0.0180757275788984 -0.0155161977262649 -0.0029621265297403 -0.0104538102359081 0.0049461359107403 
0.0132561759180549 0.0166952187562060 -0.0189480080002264 -0.0060779785889805 0.0093527024140141 -0.0146130525315439 0.0156306139293122 -0.0065077088494237 0.0008902383001147 0.0136044143614543 
0.0037682407112188 -0.0177198033209550 0.0185350842861980 -0.0164805804202865 0.0052132148702087 -0.0068750202136590 -0.0021561022785164 -0.0025971427136300 0.0126285714808949 0.0135701250706621 
-0.0124268460368239 -0.0118249856283821 0.0160441339005459 -0.0162984085972449 0.0173646726936004 0.0063186804419174 0.0051191221890052 -0.0080720567741647 0.0053845508034169 -0.0027817651232270 
-0.0188410351271718 -0.0050911116903038 -0.0030370648271125 -0.0188381619218005 -0.0085153447553660 0.0178530902282706 -0.0176058074592051 0.0118856383660396 -0.0010402428292731 -0.0050549752150719 
-0.0164503174501542 -0.0105302065992205 0.0171081946504933 0.0011839281835589 0.0147446047374583 0.0106569264366742 -0.0077029185055086 0.0157993231862963 -0.0077051867476885 0.0148328211749978 
0.0015002892811535 -0.0024732766630967 0.0085173793787639 0.0021130487845647 -0.0170089730588012 -0.0043180286516773 0.0161817664413829 0.0027642242807205 0.0119907009177445 0.0183711195285542 
0.0142559604777867 -0.0122274952010340 -0.0106793727909493 -0.0035409887311504 0.0048714180773680 -0.0167758718446737 -0.0113582259805975 -0.0143907660298634 -0.0083584150701598 -0.0178014045072573 
0.0001790896497369 0.0182126197957109 0.0249720832777766 -0.0016406882735086 -0.0101224055113476 -0.0089464934267615 0.0113030143359034 -0.0147632890262820 0.0100795318607880 -0.0048129374581991 
0.0178486254190385 -0.0027563012544681 0.0091723909224792 0.0083883176524116 -0.0049200973467243 -0.0039989862828813 0.0010564891235184 0.0046292084227799 0.0111846119105409 -0.0147804119456290 
-0.0131283087757008 0.0251357292565076 0.0231158865530103 -0.0148126319308435 -0.0200643641284943 -0.0117889106938385 0.0110264641007080 0.0012642629262073 0.0196674566962340 -0.0038793773323071 
0.0179775903019879 -0.0145712226399848 0.0164348755459747 0.0085219177830326 -0.0102190697968957 0.0011820737610289 0.0110039008827315 0.0124572510595413 0.0135290113605208 -0.0102916211743519 
-0.0115076131358513 -0.0157448091820509 0.0200056835550467 0.0203196783181961 0.0050153260314190 0.0134250169090140 0.0131487240265324 -0.0167241691208224 0.0186525609977886 -0.0024585593932217 
0.0125050971477648 0.0063200211267649 -0.0114660382743479 0.0060450160139798 -0.0024468033073215 0.0033385575157381 0.0182981792084396 0.0005630606639107 0.0206703042045815 -0.0024297011500559 
-0.0222127534728642 -0.0249145305159829 0.0034876526505339 0.0026725838397166 0.0009518437599496 0.0279164411320439 0.0045007473717858 -0.0050997061796521 -0.0191982708462255 0.0046253321639556 
-0.0076073233411002 -0.0026175647376504 -0.0049291818456484 0.0007173437553693 -0.0172603899645388 0.0147464438454589 0.0258664645304888 0.0198276897671906 0.0154576041838930 0.0259243410716903 
0.0147558093333007 -0.0082620683673505 -0.0037224840421131 -0.0062011009999037 -0.0035972689036063 0.0264763125872280 0.0046976874138796 -0.0047985012642220 -0.0055072601310844 0.0224629390750016 
-0.0015579515025509 0.0202955574302672 0.0032644650848641 -0.0114097629747839 -0.0107656308758018 -0.0016712088110122 -0.0048634370547945 -0.0129696502732593 0.0201264751984482 0.0049397826621486 
0.0016466647274582 0.0151217138736620 0.0041601961596348 0.0031331878722715 -0.0145281772241411 -0.0059139329836547 0.0049313051778929 -0.0192199361784432 0.0001447940977851 0.0175653995654030 
0.0148692966347863 -0.0155145931607917 -0.0125483392103957 -0.0093226533472515 0.0160832104965520 0.0145912696161233 0.0029787694471679 0.0120996774014675 0.0010349952996144 -0.0054638206775541 
0.0200421136258658 -0.0095868287562173 0.0080524533288903 -0.0057794780201167 -0.0191100552170609 -0.0140461672789813 0.0003990320392404 0.0053926306338906 0.0112578656218242 0.0010085904769698 
-0.0011404981298514 -0.0042527021592204 0.0217838359231507 0.0136785941860504 0.0032244508559436 0.0141950349309108 0.0089324697313065 -0.0184507369784977 -0.0108263703951002 -0.0124576821944852 
-0.0024115097138884 -0.0100873850515562 0.0082274024067417 0.0058201215458218 0.0100315640773590 -0.0144629827957709 -0.0166366556188858 -0.0054737168177737 0.0170954724476929 -0.0071513243765787 
0.0057433107645790 -0.0029069984788095 0.0108674243358257 0.0116035395252111 -0.0060335427997147 0.0100244037923946 -0.0209133256383851 0.0047508120574589 0.0100605605275736 0.0056174098519603 
0.0035453047455401 0.0036287620493755 0.0166476152846583 -0.0066917228798483 0.0115707546635847 0.0006957197924557 -0.0191609945219339 -0.0158890066173690 -0.0048956940070102 -0.0041571074692728 
-0.0034298528424695 -0.0190745599848133 -0.0002666665083690 -0.0003635950894368 0.0114694662312693 -0.0131353149882950 -0.0055371730618320 0.0093313974792649 -0.0047105995900680 0.0107869926693154 
-0.0016446244029344 0.0169518376008205 0.0089639198986107 -0.0019781943068976 -0.0114560380870998 0.0054847711118813 -0.0145538451829767 -0.0141118665249003 0.0054897609444575 0.0159885548257265 
-0.0063992066143530 -0.0162756720303705 0.0169424615872536 0.0117389129500789 0.0083590197454756 -0.0176050743647074 -0.0121679615989117 -0.0087014801797065 0.0143017893968080 -0.0133344219032812 
-0.0197252420582500 -0.0069832453382977 -0.0090975676747948 0.0149862125433514 0.0112900173955504 -0.0086138129534841 0.0000713507928931 0.0191092358668808 0.0106868400852481 -0.0020112687122928 
0.0069152439968745 -0.0085226447274162 -0.0107291340331036 0.0122015284259056 -0.0165550706503494 -0.0173849670482570 0.0063826275679213 0.0109103096081372 0.0089973318909565 0.0008428394298858 
0.0163119259666086 -0.0055644378159114 -0.0085357221723681 -0.0005584830811395 -0.0172801727195931 0.0167421877589985 0.0033711525035162 -0.0036001452176709 -0.0046191310054213 0.0090408158174466 
0.0131702443878963 -0.0039605433823326 0.0138233152363928 -0.0168202102364817 -0.0133317266254992 -0.0077347729535880 0.0106699210156553 -0.0108263698849036 -0.0178422076274583 0.0162652585486200 
-0.0093269673004433 0.0055350908262728 -0.0183919583297179 -0.0111610561042937 0.0196980932585031 0.0074896540706450 0.0155958081397619 -0.0164224486629511 -0.0046108529305750 -0.0153545089622909 
0.0199230778715327 -0.0007803594262109 0.0079146098607654 0.0164190048918549 0.0083547747187892 -0.0136505472818839 0.0048744108998413 -0.0082447896490837 0.0078369711523266 -0.0138166342965261 
-0.0114293915246881 0.0232364810271455 0.0015894104839366 -0.0178898567136265 0.0136653077383050 0.0105579671524801 -0.0080611950677912 -0.0173938753765331 -0.0045245247102082 0.0000516558016923 
0.0109025715190868 0.0202799350170235 0.0038179528197798 -0.0155169324348430 -0.0072492060539950 0.0083909868921126 0.0161749447865263 -0.0158244619681959 0.0103365714805597 0.0096967908020293 
-0.0128580955658857 0.0121577759009355 0.0190888489963255 0.0094514512079505 -0.0108947588327995 -0.0211271154657892 -0.0059954127578114 -0.0100678847363717 -0.0036699206399719 0.0104680464569218 
-0.0013303974836250 0.0087013471014659 0.0156598662900321 -0.0072158995031644 0.0077407944502833 -0.0042068831811711 -0.0016410569005866 -0.0007056231495109 0.0070617756212449 0.0138072649657468 
0.0095345720635180 0.0019452239221909 -0.0066095138567234 -0.0011317726043759 -0.0002551301582317 -0.0141240670835540 0.0273167466808870 0.0031116542522605 0.0048114784342625 -0.0147704264329230 
-0.0037782956880653 0.0019086273792007 0.0174323280426856 -0.0042518858754738 0.0078407323394318 0.0016536147314200 0.0110178378842550 0.0152754513924349 0.0236546630599614 -0.0208238073453723 
-0.0137260509559716 -0.0198122650811273 0.0104213550151028 -0.0092770576952345 0.0130211018533783 0.0185746669511254 0.0290386331053308 -0.0196659925290539 0.0119798716750415 -0.0157725676210809 
-0.0152011515060133 -0.0103010087108095 -0.0102557892815485 0.0076091436429937 -0.0024718367165974 0.0108354138769155 0.0060082683054831 0.0050392007072385 0.0150589348798954 -0.0151584276039559 
-0.0135643976721911 -0.0015024569554695 0.0081280068211962 -0.0087994335996726 -0.0097241581260836 0.0207678355871533 0.0065282766120045 0.0192816759900683 -0.0119912739959042 -0.0120007679014156 
-0.0112519446976554 -0.0097336022657509 -0.0080997650526112 -0.0067608367570225 -0.0115494409340070 0.0036095260231496 0.0265386789645750 0.0111427419331334 0.0045961708687479 0.0220016733975721 
0.0183646287462009 -0.0008183103760444 -0.0074599600776072 -0.0026228945860888 -0.0043949584814183 0.0235622071966709 0.0088643731947482 0.0169403071351454 0.0294546859260389 0.0061228542543583 
-0.0009257902033927 0.0054581655920933 -0.0085173219249616 0.0032275793021326 -0.0134808415803086 0.0254776192920112 0.0038316345185321 -0.0135270428618917 0.0291470229126889 0.0075620590657680 
0.0186028186252344 0.0088123540256272 0.0034832486898847 0.0109674658680248 0.0038639136283342 0.0097900747578139 -0.0120289857360958 -0.0136120177215070 0.0155235163651240 0.0122523346271754 
-0.0107517131043117 0.0116784844054096 0.0171163800955796 -0.0182070145369588 -0.0055390603677365 0.0088418567245252 -0.0117214362176830 -0.0219616515393950 -0.0103458665540112 0.0030019252091682 
0.0205182082627342 0.0169888923750707 -0.0016701977965566 0.0042425574164183 0.0178279021377105 -0.0064527687427324 -0.0166959220339184 -0.0167775114723059 -0.0041080207184123 -0.0053291641250417 
-0.0084993787008050 -0.0058646044499925 -0.0055794272795920 -0.0079370264109681 -0.0031739337645048 -0.0058340947705799 0.0008090130255903 0.0189510671375039 0.0009264402177957 -0.0186934344479090 
-0.0041607033779868 -0.0186732707831795 0.0151874132666712 0.0170577776103246 0.0030259719357824 -0.0076624955216665 -0.0185895183250096 -0.0003526601724867 -0.0076272825782622 -0.0115206254183461 
-0.0075879449736703 -0.0087017236616376 -0.0041245467725691 0.0186686977510081 -0.0150731276572074 -0.0089559760894643 -0.0107787154311883 -0.0128708740574165 0.0041505006548653 0.0068311980692357 
-0.0124468141532730 -0.0023453100578864 -0.0005659793061154 -0.0187263306072883 0.0027561201093442 0.0004523354544142 0.0164709642827454 -0.0001349894096692 -0.0149163704800030 -0.0161087176588894 
0.0154999235701080 -0.0122583512004537 0.0111403387967977 0.0031229700772263 0.0080538346507157 0.0146365578317747 -0.0197375931708530 -0.0098294852653662 -0.0121012144730366 0.0148294511863704 
0.0093460102080298 -0.0125058613061722 -0.0018980935125245 -0.0055914975646355 -0.0099594103823969 -0.0165285756656993 0.0013592570040157 -0.0046729814930560 0.0037103928422431 -0.0129150595717524 
-0.0173177603701855 -0.0153904843287454 -0.0134404180620182 -0.0038863221236178 -0.0146946623126926 -0.0078792687765130 -0.0151890621662038 0.0181676113520731 -0.0087325663014618 -0.0100057985168004 
-0.0061433759575182 -0.0147813348796045 0.0186620685445723 0.0090096743675039 0.0061568041016877 0.0094955290383618 0.0170726645710623 -0.0042414624469741 -0.0071541489913633 0.0099398785363323 
0.0048339733685204 0.0041890680273889 0.0077626631697376 -0.0013909407289065 -0.0175145725882748 0.0182395377174083 -0.0014967703262418 -0.0140598773155919 0.0056072642312100 -0.0000568928471729 
0.0012380358493985 0.0005768721726773 -0.0095912334730691 0.0095392374539285 -0.0082198553422651 0.0094091436986713 -0.0079731152499059 0.0119699810366022 0.0025460669169798 -0.0044310363882057 
0.0009642616072325 0.0001848336974654 -0.0000028181954714 0.0066516299647384 -0.0072018097974273 -0.0063762527007198 -0.0017462348403593 0.0168516405157386 -0.0046670843653061 0.0142135027220881 
-0.0020237029830934 -0.0054052359092287 0.0044635579072418 0.0055434540442412 -0.0076115790037512 -0.0088659928775656 0.0163709765677699 -0.0095443771353303 -0.0084178064965271 0.0113406790995572 
0.0049995748319708 0.0118925194032381 0.0167855561298814 0.0045971404976257 -0.0089028154989068 -0.0007143407103159 0.0105793926460926 0.0046268111508135 0.0196420309787276 -0.0187518250021420 
-0.0007891450955645 0.0033796213648784 0.0189907896765872 -0.0197560162973684 0.0087666280235185 0.0105766145593877 -0.0001803705775211 -0.0056581557102748 -0.0090798008650933 -0.0035210523552958 
-0.0110109758206172 0.0002532790432676 -0.0052448924249658 0.0065039217189003 0.0013776415704099 0.0082672900837531 -0.0071833130881775 -0.0167437605688029 0.0125801938933221 0.0002975633488114 
0.0060802143883461 -0.0024631176131692 0.0167010700003844 -0.0177000171574445 0.0102320013351460 0.0017639378537978 0.0074817326861489 -0.0158971477012866 0.0288340752042681 -0.0113988959451193 
-0.0073107901053635 -0.0050766984257661 -0.0094956350384059 -0.0019164017041250 -0.0143124012191462 -0.0019156787403695 0.0222523120068386 0.0165539731370222 0.0154042149487834 -0.0182500606177633 
-0.0158314275952017 -0.0075638306975901 0.0185174909504094 -0.0045973358724011 0.0109164829594478 0.0028341311086895 0.0098316393982543 -0.0191048969992165 0.0199521704031920 0.0077243604053713 
-0.0025380865678621 -0.0043633208281344 -0.0175495785759502 -0.0084912105625071 -0.0069827543701339 -0.0076606238010223 0.0189238438282652 -0.0138494382931848 0.0026393416938625 -0.0112698285291586 
0.0128547377173355 0.0108479153129390 0.0019238226677252 0.0060401980200787 -0.0079227570831192 -0.0029455893401533 0.0206929632288299 0.0088759429234130 0.0226235633263525 -0.0136901190906716 
-0.0013486419004386 -0.0199891248134827 -0.0170336381552671 0.0018414419880853 -0.0037791077033425 0.0331804706418999 0.0132478799030005 0.0196826287114926 0.0095815429461572 0.0144855574073845 
0.0150644134313425 -0.0189884097140951 -0.0265208978638398 -0.0088372041252780 0.0104638810968464 0.0033929703551638 0.0056150625285709 -0.0033683994504806 0.0057059678047104 0.0110016257835514 
0.0115162816861336 0.0099969034530670 -0.0201852936477500 0.0016657277059658 -0.0078261785999476 0.0171661679097334 -0.0003677685792169 -0.0005663527376935 0.0051227743421384 0.0020727116178120 
0.0100759421247152 0.0218515094779189 0.0092549333919024 -0.0201978462006385 0.0075282677712811 -0.0074335217117967 -0.0057204234769796 -0.0020392173208876 -0.0006094632254559 0.0279446557176822 
-0.0155850029945869 0.0055565995199286 -0.0004502734482509 -0.0028600066851206 -0.0166545208233335 0.0141984143319482 0.0174847825183842 -0.0055661614224424 0.0183123833381351 0.0201234583496262 
-0.0092552932162763 0.0041814719039815 -0.0016118373978223 -0.0036345856191986 -0.0188847495424384 0.0107052109657477 -0.0142332391029347 0.0100927168062597 -0.0025234204286882 0.0098248630212882 
0.0010935265080872 0.0245264528789313 0.0021857557252144 0.0091597904340724 -0.0036447350942857 0.0132190966991187 -0.0052082264183260 -0.0092909669832183 0.0115555205320639 0.0063709744134739 
-0.0119889944339282 -0.0055378871400902 -0.0155147709504456 -0.0160819253418654 0.0003907051930280 -0.0009280642726722 -0.0158273756087164 -0.0149800524974496 0.0231758361474630 -0.0005409878520142 
-0.0197721803726647 -0.0134465094232164 0.0089300664160906 0.0114509330704285 0.0039489421016193 0.0135476532019028 0.0027384596921274 -0.0085403956012332 -0.0060622228390486 -0.0072726823349521 
-0.0027693377978763 -0.0173723744115311 0.0118554388903182 -0.0041897626854705 0.0138336823476905 -0.0045548208390080 -0.0057142369382685 -0.0172124150673102 -0.0066980913043574 0.0001641254658533 
-0.0042171620787859 0.0060590012546075 -0.0048035052943918 0.0156263972699488 0.0006529177652310 -0.0144293309836016 0.0095817948080398 0.0007660296483877 -0.0076446791501016 -0.0013686737216660 
0.0136349953906039 0.0136238905162595 -0.0173377573603287 -0.0058696723886491 0.0012206364073694 0.0092909053586546 -0.0128581818900129 0.0166898308836489 0.0145431430318904 0.0146119995419744 
-0.0143888560811067 -0.0104915380374879 0.0080970242100104 -0.0103694938717226 0.0028240108943314 -0.0127381436453182 0.0107633884867500 -0.0073648625754455 -0.0044939672721726 0.0152238595016984 
0.0057647770763050 -0.0177188843957840 -0.0052839129861731 -0.0160290058084520 -0.0036262092959380 -0.0194535576830945 -0.0193472582067155 0.0093708583912469 -0.0051367912010000 0.0034751800341468 
-0.0092040366582476 -0.0023456526383251 0.0181700278168288 -0.0195845672384693 0.0010528885769219 -0.0191751809988565 0.0049763481551561 -0.0036170907328453 -0.0122238837855159 -0.0147630237739189 
0.0083907589953307 -0.0016144291512803 0.0033185827204199 -0.0007879879146702 -0.0068953520310068 0.0057429731131932 -0.0122507400738548 -0.0066438795129246 -0.0125046540726951 -0.0053181554612873 
0.0014056825464644 0.0075411236915189 -0.0092013306070132 -0.0067244483779412 -0.0026435132908109 0.0058003479110080 0.0127622302926725 -0.0080745872371593 -0.0165147862178411 0.0140549943540757 
-0.0061157749792647 0.0140213103247136 -0.0027175781338911 -0.0172321942368962 0.0020746482741783 0.0130050145549206 0.0051494499286410 -0.0015461236584280 -0.0048644019958599 -0.0026018179473423 
0.0047361377751395 -0.0039082630556538 0.0168857088466052 0.0199188022660324 0.0005386342205306 -0.0089844558312657 -0.0179562874991158 -0.0151629032190765 -0.0042535239940170 -0.0048804656450473 
0.0171264290805345 -0.0150351024189914 -0.0177918289107655 -0.0145776390332624 -0.0046660623301898 0.0052051606440754 0.0133892126742523 -0.0074300205397786 -0.0077007951150965 -0.0108119772013872 
0.0137907414004640 0.0077490238699959 -0.0103105981828226 0.0085940537629907 -0.0189115460290554 -0.0163439257103856 0.0147230644703785 -0.0145361428516805 0.0128217993530313 0.0017311458644714 
-0.0092553018853137 0.0072145771410581 0.0063577991015826 -0.0019638761630747 0.0047133596427498 -0.0051267210005593 0.0181594638407168 -0.0047412708642117 0.0229765611310709 0.0058812047969122 
0.0147440205737424 -0.0046191118337588 0.0082995887234806 -0.0188780808546395 -0.0177542273254391 -0.0093477366796846 0.0169785082268081 -0.0053547023974522 0.0231039613541150 -0.0067044496142662 
-0.0105300407298503 0.0038641137772954 0.0024164442292630 0.0081197874663945 0.0178037546323498 -0.0072290679050743 0.0142129700715048 -0.0181480435559196 0.0109662473916907 -0.0169792418741542 
0.0134314457009283 0.0221498031452567 0.0117040445990336 0.0195585841014477 -0.0109508503858092 -0.0135698093341416 0.0077517291340795 0.0000419637309705 0.0001058343414851 0.0115708957415164 
0.0128767004637310 0.0178013746856781 -0.0114188561868826 0.0153973425620226 -0.0191527116679377 -0.0247108274213359 0.0206128990733196 0.0155901254637546 0.0167540926207732 -0.0072148782747203 
0.0084940407499831 0.0107097253984509 -0.0169043938694045 -0.0005301686047539 -0.0057579165541462 -0.0150318535268651 0.0237218334585416 0.0010462625513516 0.0052382544828797 -0.0107552175828686 
0.0106743215259522 -0.0004525836466233 -0.0168083966939122 0.0186968007611546 0.0096251873780263 -0.0108295550519774 0.0196634923128519 -0.0064920161696260 0.0240961723235805 -0.0002850777727906 
0.0244459477821516 -0.0204105816659946 0.0006961453207621 0.0142203817241267 0.0043663564085360 0.0335445738375340 0.0071229742138682 -0.0063461908096295 0.0072184848464442 0.0070506019450026 
0.0069062159336631 -0.0035261520671598 0.0009799173547626 0.0004565050449266 0.0104844936970984 0.0064578859837960 0.0225461800565514 0.0151992146973654 0.0165460489090802 0.0192872432473597 
0.0035552367816604 -0.0106737007482267 0.0067462313444462 -0.0141840990890124 -0.0150364993400663 0.0293015740396467 0.0008225548466494 -0.0080334081432563 0.0188988150045119 0.0068374323375696 
0.0147103594433290 0.0296687323630800 0.0074149045516290 -0.0003819220360310 0.0153865663925193 0.0022359454186097 -0.0001043253602435 -0.0190370116545502 0.0212825774783133 -0.0082523871766832 
0.0164875163375626 0.0010063375118855 -0.0202220671706051 -0.0033708676020348 -0.0017610702203455 0.0020873646118886 0.0022229541725023 0.0021012933652122 0.0059120641259757 -0.0033044754942173 
-0.0214584815762345 0.0206106529128736 -0.0142166568835555 -0.0102668070457316 0.0072323037017074 -0.0189020682499073 0.0113915639532979 -0.0113594317215970 0.0115085928239459 0.0033295463411783 
0.0148477966546612 0.0064198115748261 -0.0108131181202603 0.0026322086849436 0.0196072690939500 0.0038434421628694 0.0131429827936001 -0.0013394431327859 0.0121256624683256 -0.0166222090647788 
-0.0022394732646980 0.0109483362138659 0.0151227393625774 0.0045393495204984 -0.0176053927012293 0.0065648905111208 0.0111917932750364 0.0134454053624571 -0.0084933269711431 0.0163160284584953 
-0.0034060346665568 0.0090496764363901 -0.0107312116720761 0.0094047655368254 0.0147532955833857 -0.0050262181065720 -0.0133794181109319 -0.0129565248624591 0.0003314284349550 0.0089288388571627 
0.0007829596822962 -0.0015201683191074 0.0025439331000118 0.0135290821306594 0.0014160200196719 -0.0162569599549322 -0.0085989306009275 0.0000162458342069 0.0226423312883509 -0.0032576349581461 
0.0008452105913244 0.0077921617374974 0.0027685707297773 -0.0033966370277807 -0.0024798516378470 -0.0218843608892264 -0.0198464741647274 -0.0041615466644168 -0.0065191037503698 -0.0230318018422988 
0.0096964035817591 -0.0028513981139860 0.0035564065563134 -0.0062868149030371 -0.0014805767226432 0.0047172724527412 0.0023681563749055 -0.0033957999791379 -0.0163580288916584 0.0087177611075972 
-0.0000791566651030 -0.0112197654451910 -0.0017804136182168 -0.0098876390987242 0.0033215711661407 0.0037154735344227 0.0029628386863342 0.0017935366481417 -0.0070365278505313 -0.0067407099548921 
0.0095057487140166 -0.0170763233767588 0.0113917891490469 -0.0032279569074232 0.0143076766321001 -0.0145197718586039 -0.0103529405043915 -0.0092990936463282 -0.0139535075962198 0.0199873442649329 
-0.0064912881589863 0.0138204559497902 0.0060991332253833 0.0199946585540212 0.0145310831019013 -0.0028789480826811 -0.0137531929848148 0.0008552636362858 0.0129089775054148 -0.0166687658089239 
-0.0096688741721854 0.0011346781823176 0.0150523392437513 -0.0130466628009888 -0.0076241340372936 -0.0135398419141209 -0.0080440687276833 0.0157982116153447 -0.0074300363170263 -0.0104721213415937 
-0.0075421266972118 -0.0060362862272526 0.0012809146010946 -0.0129768321655379 0.0171849726859340 -0.0068113389403774 -0.0002612254888154 -0.0057411614688858 0.0145756909765905 -0.0171465033658941 
-0.0088312135264685 -0.0164383377483603 0.0065081910982038 -0.0066515346157057 -0.0011041596728416 -0.0119874629576193 -0.0073795398588629 -0.0077106426624926 -0.0155569187925132 -0.0016876562605802 
0.0180112310844997 -0.0185637143565893 -0.0036716277693328 -0.0055128572976944 0.0146018769964632 -0.0082552042103384 0.0162345292603467 0.0027852240720263 0.0181380522402866 -0.0154841817242348 
-0.0194652536137781 -0.0086502636550735 0.0126710525090020 -0.0103892942065156 0.0032425713853345 -0.0072380092381186 -0.0020962665848008 0.0154879648803512 0.0184154371731551 -0.0187787789297553 
0.0107900689838620 -0.0041988847421296 0.0095472322788657 -0.0133238701061098 0.0078056924780492 -0.0142528173803863 -0.0189970796287617 0.0094717216279129 0.0149731094264761 -0.0017206477212407 
0.0159351710088334 -0.0073197575004703 -0.0039073816975119 -0.0136971627191427 0.0090368801150412 0.0095130737205940 0.0054598720302740 0.0119695111204012 -0.0121153014804380 0.0115218020011648 
0.0134747278865559 0.0125377006303288 0.0084184570218421 -0.0064264854712381 -0.0057942595275712 0.0019584226570802 -0.0136442616843873 0.0118466846063643 0.0038391056934977 -0.0050905104919057 
-0.0080899692923760 0.0180458433416923 -0.0106127049543115 -0.0083384267552662 0.0129248171342213 -0.0165073576357770 0.0154046020537360 -0.0159890549708032 -0.0070249829199008 -0.0115752129028419 
0.0194329792802481 0.0168382276881286 0.0083771077066470 0.0186428100399764 -0.0026763042546494 -0.0215568394647670 0.0088693312836323 0.0103166826544538 0.0011803966324327 -0.0065830450446848 
0.0144402112883602 0.0179320024783874 0.0068533288336094 -0.0011424889954939 -0.0027771125879308 -0.0207300481338420 0.0012052733990133 0.0146045975866681 0.0131591205527995 0.0144351485632755 
0.0137593611835179 -0.0135858149043899 0.0031168072846516 0.0010391196799662 0.0046166857417529 0.0005817776032559 0.0181599375799897 0.0158976723166202 0.0095032579227926 0.0034339957023503 
0.0265230209830593 -0.0036343139925077 -0.0230421981711876 0.0098485918900870 0.0027795753713886 0.0172646725063272 -0.0016235301784610 0.0090816869452460 0.0127100490490315 0.0093104517052124 
0.0075508780184221 0.0115238078671619 -0.0131828723234770 0.0052045973698371 0.0084537725379358 0.0156524954381557 0.0148675600694162 -0.0061445692617279 -0.0135986912834783 -0.0103421225969337 
-0.0074158566020215 -0.0000791364615567 -0.0115993388065270 -0.0067231115162542 -0.0076609641369248 0.0112094631212607 0.0073872065098658 0.0070936088382858 0.0034627265158900 -0.0035218712977129 
0.0144325096381497 0.0108837649167812 -0.0127131653210295 0.0131023970991177 0.0115199965075783 0.0055012507396686 0.0174960033816588 0.0061301941729637 0.0211999063220327 -0.0088013032901874 
0.0085129543084715 0.0098563857836344 0.0008682281586026 -0.0141336565539852 -0.0102910940561998 -0.0021188249282484 0.0054375127050686 0.0116152661483614 -0.0020649083711080 -0.0024143719361443 
-0.0094157154841687 0.0188534306316960 -0.0110878729507327 0.0004800235024733 -0.0160670395778917 0.0068262626603597 -0.0003021031126017 0.0023742129014778 -0.0130808588483612 -0.0029214445129889 
0.0022270865407681 0.0061642926613219 0.0206110968516414 0.0035430274222554 -0.0124107323307699 -0.0053803364895719 -0.0153891451515328 0.0058585537260388 0.0169067186246631 0.0051923066073008 
-0.0007721964021421 0.0161358382974554 -0.0037964968869194 0.0230989459043572 -0.0179248967688387 0.0006907699802667 -0.0057634747049917 0.0156189169388684 0.0185302738792866 0.0125398513151457 
-0.0002538123969232 -0.0140959078027281 0.0217860846769202 -0.0016358978306407 -0.0140092637755650 -0.0171602054304613 -0.0085584194753943 0.0115426861470762 0.0198827060143342 0.0109918773671530 
0.0096386414725192 0.0024166231266363 -0.0114351195722186 0.0088775831304012 -0.0117379285206577 -0.0020932812951465 -0.0220867048995954 0.0035852915703373 0.0152898113173381 -0.0220476338179271 
-0.0190013548700737 -0.0165580840419429 -0.0058072430421893 0.0102024996260014 0.0034564745750906 0.0099365440570959 0.0088347478862514 0.0064336135944503 0.0014797055146229 -0.0002545760013258 
0.0102485360923677 0.0093944726173334 -0.0164081974283632 -0.0102295477604116 0.0181887271959546 -0.0040319596209505 0.0087396521380376 0.0127065171213494 0.0143594172999286 0.0004954502394926 
0.0166599458356687 -0.0023983800640548 0.0202453242700110 0.0058107401576903 -0.0025185528281510 -0.0019925473887236 -0.0132727495764125 -0.0120603365707462 -0.0170413271145989 0.0078850299517507 
-0.0162427361621006 -0.0136001375762931 -0.0075280574194423 -0.0091261078541974 0.0104274944319843 0.0020905858622257 0.0195546621438126 0.0175213958527686 -0.0034706532457178 -0.0090274959187880 
0.0170117115195513 -0.0018142898812238 0.0081562156127759 0.0129749187789280 -0.0183539459375088 0.0092616610718140 -0.0178270270984223 0.0172975907848512 -0.0148556440159741 -0.0108831906205576 
-0.0098662623873571 -0.0157335266713901 -0.0106945262902979 -0.0195900657706690 -0.0182299264503922 0.0149185698646181 -0.0189329792209314 0.0119973188339958 0.0121255248999107 -0.0125339827585002 
-0.0156077761162145 0.0051338236640522 0.0014606158635212 0.0016522721030305 -0.0009100619525742 0.0161522263252663 -0.0134055604724265 0.0011407818842128 -0.0124118778038881 0.0148484756004517 
0.0019760685744147 -0.0194957294746982 -0.0189685207380826 -0.0046515497298392 0.0123776970732749 -0.0015141348943295 0.0172541849990376 -0.0165016445335016 0.0156817690207968 -0.0093793686984039 
-0.0047490506899475 -0.0119604154268000 -0.0133631645674538 -0.0193353464685031 0.0082992034669027 -0.0172103014576622 0.0095519031633211 0.0076514337370345 0.0103578430460933 0.0120287096372367 
-0.0179873247891256 -0.0022063166007404 -0.0021508506629930 0.0177627694316692 -0.0046286098454097 -0.0127770220178005 0.0070497466779980 0.0084376773617926 -0.0188985396067832 0.0129033572345762 
0.0076892363146180 -0.0187450172727623 -0.0034158227083805 0.0040894073481697 0.0087197327762025 -0.0196850880356295 0.0167052056660394 0.0018694837319267 -0.0206299040567967 -0.0115548399604026 
-0.0188945111210253 0.0075160053076071 -0.0010275169614626 0.0190436698254703 -0.0128502258897414 0.0009879918274955 -0.0036245823882174 -0.0187660789941656 -0.0006123177579940 0.0152751536385190 
-0.0170074107090845 0.0112863308630220 0.0042719270802182 0.0129525793417949 0.0059912023603492 -0.0237875032186949 -0.0010171049635825 0.0006547234874340 0.0088749116845583 -0.0168680757802033 
0.0018225355315934 0.0076781725184717 0.0146367958132801 -0.0002781119064465 -0.0180208739137168 -0.0233868291622517 0.0120061002394780 -0.0152266928782351 0.0086332698107053 0.0020114129251940 
0.0269456799832306 -0.0147726594422105 -0.0021879000456311 -0.0099078407065323 -0.0042083694891446 -0.0264502654192335 0.0075406177264553 0.0017670290782951 0.0130583524023417 -0.0099375071732998 
0.0096945811223428 -0.0026259467530871 0.0188020878541255 0.0140375226790774 -0.0074637849638244 0.0057509501233410 -0.0048786488816454 0.0066373131170566 -0.0050330305156142 -0.0154058083699527 
0.0350607268445317 -0.0205852853987293 -0.0084310648106568 0.0048184426360897 -0.0042670816528849 -0.0098811189756780 -0.0056629021095570 0.0000076913392516 0.0266495196544657 -0.0105550505648741 
0.0074154981979956 0.0016980447531716 -0.0061198647005708 -0.0048819103158862 -0.0115779959480160 -0.0089573511376485 0.0039933435520638 -0.0040508817152553 -0.0065414728485878 -0.0074587647663274 
0.0265071612516084 0.0138969924864939 -0.0109382409481485 -0.0049507758730311 -0.0147689484950445 0.0074117708741156 0.0122570227522570 0.0176528875825076 0.0004166391638411 0.0055620454815387 
0.0339174427538601 0.0170095855178914 -0.0294428032034562 -0.0133947202302517 -0.0021757823038278 0.0149943552880110 -0.0194444604044424 0.0037464183603350 0.0087704290180026 -0.0140418739753915 
0.0286602341371209 0.0196238048402842 -0.0186932602578928 -0.0165455458127199 -0.0199319498643002 0.0081270763314759 -0.0176356906798518 0.0030667946378533 -0.0056397853840301 0.0154370882633506 
0.0005742072889178 0.0183814709446276 0.0051845339267104 -0.0135438802360640 0.0124420614374260 -0.0005785280968483 0.0034124179042635 -0.0110619511813409 0.0018150929365986 -0.0054522156848827 
0.0193057749408269 -0.0084930410796269 -0.0130179583956380 0.0051132406010202 0.0120238409483100 -0.0093799599124263 0.0139007700999114 0.0122604183309752 0.0184761490151284 0.0074366006852017 
0.0067585728318877 0.0251480724206070 0.0051279083282206 0.0091757451057916 -0.0038145473651810 -0.0076361131377707 0.0124733440516104 -0.0163513653766880 -0.0019748317799074 0.0227147715700373 
-0.0028325130755688 0.0042112449788185 0.0169363127559269 0.0115790454271268 -0.0020875618508939 0.0077287415418846 0.0122679174704959 0.0013750483831684 -0.0182351592238957 0.0124497840703657 
-0.0180950045051460 -0.0112023849283319 0.0212324826271130 0.0136067035552622 0.0053234431587461 0.0029208684572672 0.0112599440183182 -0.0031549351154133 0.0133399980871999 0.0147445098709034 
-0.0108890468592671 -0.0095358915293241 0.0092444489308207 0.0022007121420280 0.0126946395984389 -0.0064828979393199 -0.0026023673316974 0.0145335939576669 0.0137324409941966 0.0159696761219661 
-0.0065156871265058 -0.0002424348244760 -0.0053671447758905 0.0099757969479589 0.0183399336675580 -0.0158067939528517 0.0014845825175909 -0.0183412480992828 -0.0071828816087383 0.0154874021415595 
0.0060024609098025 0.0084234097396182 0.0065793726608559 0.0090873666986700 -0.0029945778964437 0.0150975216121234 -0.0164763918877755 0.0008477781486637 0.0018861707211386 -0.0066447692428162 
-0.0084045116865126 0.0067090693004949 -0.0054344642569163 0.0017995162924692 0.0037122278493298 -0.0214430888134061 0.0093513722437383 0.0138098736995465 0.0026170814283504 0.0028724122546812 
0.0077534963899118 -0.0061830309178831 -0.0173423008675178 -0.0087535839360532 -0.0178741338279277 0.0099181051823011 0.0183576026659919 -0.0066883111698755 -0.0034705575053946 -0.0053573399656825 
-0.0158352546456755 0.0143902137335800 -0.0084103100748683 0.0016611515105485 0.0177986196096903 -0.0133457539051956 -0.0061777889704858 -0.0148939831307567 -0.0005006043312832 0.0111047813601965 
0.0019001722971478 0.0199180979013658 0.0101692740733166 0.0156016009799718 -0.0055598620563372 0.0084232716337980 0.0144521263431415 0.0030262021602326 -0.0163653668509760 -0.0019283819449238 
0.0090063823696253 -0.0103604411903196 0.0087223705577533 -0.0096370663437988 -0.0181322672200690 -0.0195864128961049 -0.0199326101316705 -0.0102169673410501 0.0105615744488133 -0.0107060828160448 
0.0098364760986026 -0.0187828136931803 -0.0158037105997060 -0.0041512731046244 0.0030573442793054 0.0030541390714543 -0.0060863789602439 -0.0182585744473023 -0.0017667277371839 0.0053440628943943 
-0.0064029367301479 0.0194139087690970 0.0040910181419454 0.0037304306637630 -0.0163328959013642 0.0078653028063151 0.0016175469391990 0.0060832552263578 -0.0187393031261436 -0.0073110622621993 
0.0004441396685584 -0.0008418480620218 0.0166175187603400 -0.0139687157936490 0.0123496200445570 -0.0069229998554358 -0.0167872807647758 -0.0199616707612671 0.0154467663738575 -0.0155268924113438 
-0.0084754115748800 0.0160723434473389 -0.0003321561887410 -0.0147582671090326 -0.0148219057672333 0.0003745157207916 0.0184208531773183 -0.0047429802719911 0.0088042643343930 0.0158916372050213 
-0.0120804423457575 0.0089892991780474 -0.0178779853818321 -0.0051144635676408 0.0032568232568619 -0.0191017090365179 0.0088684497879238 -0.0200286834798407 -0.0077637787588892 -0.0024617386708738 
-0.0016493460670298 -0.0026168122010434 -0.0142685886578098 0.0107055563186131 0.0164003415215454 -0.0053799978681139 0.0162133628220947 -0.0131819583880286 -0.0058062538852533 0.0123811640813979 
